Language model created by QuickLM on Thu Mar  3 20:38:18 EST 2016
Copyright (c) 1996-2010 Carnegie Mellon University and Alexander I. Rudnicky

The model is in standard ARPA format, designed by Doug Paul while he was at MITRE.

The code that was used to produce this language model is available in Open Source.
Please visit http://www.speech.cs.cmu.edu/tools/ for more information

The (fixed) discount mass is 0.5. The backoffs are computed using the ratio method.
This model based on a corpus of 5840 sentences and 5842 words

\data\
ngram 1=5842
ngram 2=11680
ngram 3=5840

\1-grams:
-0.7782 </s> -0.3010
-0.7782 <s> -0.2218
-4.5446 aaron -0.2218
-4.5446 abandoned -0.2218
-4.5446 aberdeen -0.2218
-4.5446 ability -0.2218
-4.5446 aboriginal -0.2218
-4.5446 abortion -0.2218
-4.5446 about -0.2218
-4.5446 above -0.2218
-4.5446 abraham -0.2218
-4.5446 abroad -0.2218
-4.5446 absence -0.2218
-4.5446 absent -0.2218
-4.5446 absolute -0.2218
-4.5446 absolutely -0.2218
-4.5446 absorption -0.2218
-4.5446 abstract -0.2218
-4.5446 abuse -0.2218
-4.5446 academic -0.2218
-4.5446 academy -0.2218
-4.5446 accent -0.2218
-4.5446 accept -0.2218
-4.5446 acceptable -0.2218
-4.5446 acceptance -0.2218
-4.5446 accepting -0.2218
-4.5446 access -0.2218
-4.5446 accessibility -0.2218
-4.5446 accessible -0.2218
-4.5446 accessing -0.2218
-4.5446 accessory -0.2218
-4.5446 accident -0.2218
-4.5446 accommodate -0.2218
-4.5446 accommodation -0.2218
-4.5446 accompanied -0.2218
-4.5446 accompanying -0.2218
-4.5446 accomplish -0.2218
-4.5446 accordance -0.2218
-4.5446 according -0.2218
-4.5446 accordingly -0.2218
-4.5446 account -0.2218
-4.5446 accountability -0.2218
-4.5446 accounting -0.2218
-4.5446 accreditation -0.2218
-4.5446 accredited -0.2218
-4.5446 accuracy -0.2218
-4.5446 accurate -0.2218
-4.5446 accurately -0.2218
-4.5446 accused -0.2218
-4.5446 acdbentity -0.2218
-4.5446 achieve -0.2218
-4.5446 achieved -0.2218
-4.5446 achievement -0.2218
-4.5446 achieving -0.2218
-4.5446 acids -0.2218
-4.5446 acknowledge -0.2218
-4.5446 acknowledged -0.2218
-4.5446 acoustic -0.2218
-4.5446 acquire -0.2218
-4.5446 acquired -0.2218
-4.5446 acquisition -0.2218
-4.5446 acres -0.2218
-4.5446 acrobat -0.2218
-4.5446 across -0.2218
-4.5446 acrylic -0.2218
-4.5446 acting -0.2218
-4.5446 action -0.2218
-4.5446 activated -0.2218
-4.5446 activation -0.2218
-4.5446 active -0.2218
-4.5446 actively -0.2218
-4.5446 activists -0.2218
-4.5446 activity -0.2218
-4.5446 actor -0.2218
-4.5446 actress -0.2218
-4.5446 actual -0.2218
-4.5446 actually -0.2218
-4.5446 acute -0.2218
-4.5446 adams -0.2218
-4.5446 adaptation -0.2218
-4.5446 adapted -0.2218
-4.5446 adapter -0.2218
-4.5446 adaptive -0.2218
-4.5446 adaptor -0.2218
-4.5446 added -0.2218
-4.5446 addiction -0.2218
-4.5446 adding -0.2218
-4.5446 addition -0.2218
-4.5446 additional -0.2218
-4.5446 additionally -0.2218
-4.5446 address -0.2218
-4.5446 addressing -0.2218
-4.5446 adelaide -0.2218
-4.5446 adequate -0.2218
-4.5446 adidas -0.2218
-4.5446 adipex -0.2218
-4.5446 adjacent -0.2218
-4.5446 adjust -0.2218
-4.5446 adjustable -0.2218
-4.5446 adjustment -0.2218
-4.5446 admin -0.2218
-4.5446 administered -0.2218
-4.5446 administration -0.2218
-4.5446 administrative -0.2218
-4.5446 administrator -0.2218
-4.5446 admission -0.2218
-4.5446 admit -0.2218
-4.5446 admitted -0.2218
-4.5446 adobe -0.2218
-4.5446 adolescent -0.2218
-4.5446 adopt -0.2218
-4.5446 adoption -0.2218
-4.5446 adrian -0.2218
-4.5446 adult -0.2218
-4.5446 advance -0.2218
-4.5446 advanced -0.2218
-4.5446 advancement -0.2218
-4.5446 advantage -0.2218
-4.5446 adventure -0.2218
-4.5446 adverse -0.2218
-4.5446 advert -0.2218
-4.5446 advertise -0.2218
-4.5446 advertisement -0.2218
-4.5446 advertiser -0.2218
-4.5446 advertising -0.2218
-4.5446 advice -0.2218
-4.5446 advise -0.2218
-4.5446 advised -0.2218
-4.5446 advisor -0.2218
-4.5446 advisory -0.2218
-4.5446 advocacy -0.2218
-4.5446 advocate -0.2218
-4.5446 adware -0.2218
-4.5446 aerial -0.2218
-4.5446 aerospace -0.2218
-4.5446 affair -0.2218
-4.5446 affect -0.2218
-4.5446 affecting -0.2218
-4.5446 affiliate -0.2218
-4.5446 affiliated -0.2218
-4.5446 affiliation -0.2218
-4.5446 afford -0.2218
-4.5446 affordable -0.2218
-4.5446 afghanistan -0.2218
-4.5446 afraid -0.2218
-4.5446 africa -0.2218
-4.5446 african -0.2218
-4.5446 after -0.2218
-4.5446 afternoon -0.2218
-4.5446 afterwards -0.2218
-4.5446 again -0.2218
-4.5446 against -0.2218
-4.5446 agency -0.2218
-4.5446 agenda -0.2218
-4.5446 agent -0.2218
-4.5446 aggregate -0.2218
-4.5446 aggressive -0.2218
-4.5446 aging -0.2218
-4.5446 agree -0.2218
-4.5446 agreed -0.2218
-4.5446 agreement -0.2218
-4.5446 agricultural -0.2218
-4.5446 agriculture -0.2218
-4.5446 ahead -0.2218
-4.5446 aimed -0.2218
-4.5446 aircraft -0.2218
-4.5446 airfare -0.2218
-4.5446 airline -0.2218
-4.5446 airplane -0.2218
-4.5446 airport -0.2218
-4.5446 alabama -0.2218
-4.5446 alarm -0.2218
-4.5446 alaska -0.2218
-4.5446 albania -0.2218
-4.5446 albany -0.2218
-4.5446 albert -0.2218
-4.5446 alberta -0.2218
-4.5446 album -0.2218
-4.5446 albuquerque -0.2218
-4.5446 alcohol -0.2218
-4.5446 alert -0.2218
-4.5446 alexander -0.2218
-4.5446 alexandria -0.2218
-4.5446 alfred -0.2218
-4.5446 algebra -0.2218
-4.5446 algeria -0.2218
-4.5446 algorithm -0.2218
-4.5446 alias -0.2218
-4.5446 alice -0.2218
-4.5446 alien -0.2218
-4.5446 align -0.2218
-4.5446 alignment -0.2218
-4.5446 alike -0.2218
-4.5446 alive -0.2218
-4.5446 allah -0.2218
-4.5446 allan -0.2218
-4.5446 alleged -0.2218
-4.5446 allen -0.2218
-4.5446 allergy -0.2218
-4.5446 alliance -0.2218
-4.5446 allied -0.2218
-4.5446 allocated -0.2218
-4.5446 allocation -0.2218
-4.5446 allow -0.2218
-4.5446 allowance -0.2218
-4.5446 allowing -0.2218
-4.5446 alloy -0.2218
-4.5446 almost -0.2218
-4.5446 alone -0.2218
-4.5446 along -0.2218
-4.5446 alpha -0.2218
-4.5446 alphabetical -0.2218
-4.5446 alpine -0.2218
-4.5446 already -0.2218
-4.5446 alter -0.2218
-4.5446 alternate -0.2218
-4.5446 alternative -0.2218
-4.5446 alternatively -0.2218
-4.5446 although -0.2218
-4.5446 aluminium -0.2218
-4.5446 aluminum -0.2218
-4.5446 alumni -0.2218
-4.5446 always -0.2218
-4.5446 amanda -0.2218
-4.5446 amateur -0.2218
-4.5446 amazing -0.2218
-4.5446 amazon -0.2218
-4.5446 ambassador -0.2218
-4.5446 ambien -0.2218
-4.5446 ambient -0.2218
-4.5446 amendment -0.2218
-4.5446 amenities -0.2218
-4.5446 america -0.2218
-4.5446 american -0.2218
-4.5446 amongst -0.2218
-4.5446 amount -0.2218
-4.5446 ampland -0.2218
-4.5446 amplifier -0.2218
-4.5446 amsterdam -0.2218
-4.5446 anaheim -0.2218
-4.5446 analog -0.2218
-4.5446 analyses -0.2218
-4.5446 analysis -0.2218
-4.5446 analyst -0.2218
-4.5446 analytical -0.2218
-4.5446 analyze -0.2218
-4.5446 analyzed -0.2218
-4.5446 anatomy -0.2218
-4.5446 anchor -0.2218
-4.5446 ancient -0.2218
-4.5446 anderson -0.2218
-4.5446 andorra -0.2218
-4.5446 angela -0.2218
-4.5446 angeles -0.2218
-4.5446 angola -0.2218
-4.5446 animal -0.2218
-4.5446 animated -0.2218
-4.5446 animation -0.2218
-4.5446 anniversary -0.2218
-4.5446 annotated -0.2218
-4.5446 annotation -0.2218
-4.5446 announce -0.2218
-4.5446 announced -0.2218
-4.5446 announcement -0.2218
-4.5446 annoying -0.2218
-4.5446 annual -0.2218
-4.5446 annually -0.2218
-4.5446 anonymous -0.2218
-4.5446 another -0.2218
-4.5446 answer -0.2218
-4.5446 answering -0.2218
-4.5446 antarctica -0.2218
-4.5446 antenna -0.2218
-4.5446 anthony -0.2218
-4.5446 anthropology -0.2218
-4.5446 antibody -0.2218
-4.5446 anticipated -0.2218
-4.5446 antigua -0.2218
-4.5446 antique -0.2218
-4.5446 antivirus -0.2218
-4.5446 antonio -0.2218
-4.5446 anxiety -0.2218
-4.5446 anybody -0.2218
-4.5446 anymore -0.2218
-4.5446 anyone -0.2218
-4.5446 anything -0.2218
-4.5446 anytime -0.2218
-4.5446 anyway -0.2218
-4.5446 anywhere -0.2218
-4.5446 apache -0.2218
-4.5446 apart -0.2218
-4.5446 apartment -0.2218
-4.5446 apnic -0.2218
-4.5446 apollo -0.2218
-4.5446 apparatus -0.2218
-4.5446 apparel -0.2218
-4.5446 apparent -0.2218
-4.5446 apparently -0.2218
-4.5446 appeal -0.2218
-4.5446 appear -0.2218
-4.5446 appearance -0.2218
-4.5446 appearing -0.2218
-4.5446 appendix -0.2218
-4.5446 apple -0.2218
-4.5446 appliance -0.2218
-4.5446 applicable -0.2218
-4.5446 applicant -0.2218
-4.5446 application -0.2218
-4.5446 apply -0.2218
-4.5446 applying -0.2218
-4.5446 appointed -0.2218
-4.5446 appointment -0.2218
-4.5446 appraisal -0.2218
-4.5446 appreciate -0.2218
-4.5446 appreciated -0.2218
-4.5446 appreciation -0.2218
-4.5446 approach -0.2218
-4.5446 appropriate -0.2218
-4.5446 appropriations -0.2218
-4.5446 approval -0.2218
-4.5446 approve -0.2218
-4.5446 approved -0.2218
-4.5446 approx -0.2218
-4.5446 approximate -0.2218
-4.5446 approximately -0.2218
-4.5446 april -0.2218
-4.5446 aquarium -0.2218
-4.5446 aquatic -0.2218
-4.5446 arabia -0.2218
-4.5446 arabic -0.2218
-4.5446 arbitrary -0.2218
-4.5446 arbitration -0.2218
-4.5446 arbor -0.2218
-4.5446 arcade -0.2218
-4.5446 architect -0.2218
-4.5446 architectural -0.2218
-4.5446 architecture -0.2218
-4.5446 archive -0.2218
-4.5446 archived -0.2218
-4.5446 arctic -0.2218
-4.5446 areas -0.2218
-4.5446 arena -0.2218
-4.5446 argentina -0.2218
-4.5446 argue -0.2218
-4.5446 argued -0.2218
-4.5446 argument -0.2218
-4.5446 arise -0.2218
-4.5446 arising -0.2218
-4.5446 arizona -0.2218
-4.5446 arkansas -0.2218
-4.5446 arlington -0.2218
-4.5446 armed -0.2218
-4.5446 armenia -0.2218
-4.5446 armor -0.2218
-4.5446 armstrong -0.2218
-4.5446 arnold -0.2218
-4.5446 around -0.2218
-4.5446 arranged -0.2218
-4.5446 arrangement -0.2218
-4.5446 array -0.2218
-4.5446 arrest -0.2218
-4.5446 arrival -0.2218
-4.5446 arrive -0.2218
-4.5446 arrived -0.2218
-4.5446 arrow -0.2218
-4.5446 arthritis -0.2218
-4.5446 arthur -0.2218
-4.5446 article -0.2218
-4.5446 artificial -0.2218
-4.5446 artist -0.2218
-4.5446 artistic -0.2218
-4.5446 artwork -0.2218
-4.5446 aruba -0.2218
-4.5446 asbestos -0.2218
-4.5446 ascii -0.2218
-4.5446 ashley -0.2218
-4.5446 asian -0.2218
-4.5446 aside -0.2218
-4.5446 asked -0.2218
-4.5446 asking -0.2218
-4.5446 aspect -0.2218
-4.5446 assault -0.2218
-4.5446 assembled -0.2218
-4.5446 assembly -0.2218
-4.5446 assess -0.2218
-4.5446 assessing -0.2218
-4.5446 assessment -0.2218
-4.5446 asset -0.2218
-4.5446 assign -0.2218
-4.5446 assignment -0.2218
-4.5446 assist -0.2218
-4.5446 assistance -0.2218
-4.5446 assistant -0.2218
-4.5446 associate -0.2218
-4.5446 associated -0.2218
-4.5446 association -0.2218
-4.5446 assume -0.2218
-4.5446 assumed -0.2218
-4.5446 assuming -0.2218
-4.5446 assumption -0.2218
-4.5446 assurance -0.2218
-4.5446 assure -0.2218
-4.5446 assured -0.2218
-4.5446 asthma -0.2218
-4.5446 astrology -0.2218
-4.5446 astronomy -0.2218
-4.5446 asylum -0.2218
-4.5446 athens -0.2218
-4.5446 athletes -0.2218
-4.5446 athletic -0.2218
-4.5446 atlanta -0.2218
-4.5446 atlantic -0.2218
-4.5446 atlas -0.2218
-4.5446 atmosphere -0.2218
-4.5446 atmospheric -0.2218
-4.5446 atomic -0.2218
-4.5446 attach -0.2218
-4.5446 attachment -0.2218
-4.5446 attack -0.2218
-4.5446 attempt -0.2218
-4.5446 attempting -0.2218
-4.5446 attend -0.2218
-4.5446 attendance -0.2218
-4.5446 attending -0.2218
-4.5446 attention -0.2218
-4.5446 attitude -0.2218
-4.5446 attorney -0.2218
-4.5446 attract -0.2218
-4.5446 attraction -0.2218
-4.5446 attractive -0.2218
-4.5446 attribute -0.2218
-4.5446 auburn -0.2218
-4.5446 auckland -0.2218
-4.5446 auction -0.2218
-4.5446 audience -0.2218
-4.5446 audio -0.2218
-4.5446 audit -0.2218
-4.5446 auditor -0.2218
-4.5446 august -0.2218
-4.5446 aurora -0.2218
-4.5446 austin -0.2218
-4.5446 australia -0.2218
-4.5446 australian -0.2218
-4.5446 austria -0.2218
-4.5446 authentic -0.2218
-4.5446 authentication -0.2218
-4.5446 author -0.2218
-4.5446 authority -0.2218
-4.5446 authorization -0.2218
-4.5446 authorized -0.2218
-4.5446 automated -0.2218
-4.5446 automatic -0.2218
-4.5446 automatically -0.2218
-4.5446 automation -0.2218
-4.5446 automobile -0.2218
-4.5446 automotive -0.2218
-4.5446 autos -0.2218
-4.5446 autumn -0.2218
-4.5446 availability -0.2218
-4.5446 available -0.2218
-4.5446 avatar -0.2218
-4.5446 avenue -0.2218
-4.5446 average -0.2218
-4.5446 aviation -0.2218
-4.5446 avoid -0.2218
-4.5446 avoiding -0.2218
-4.5446 award -0.2218
-4.5446 aware -0.2218
-4.5446 awareness -0.2218
-4.5446 awesome -0.2218
-4.5446 awful -0.2218
-4.5446 azerbaijan -0.2218
-4.5446 bachelor -0.2218
-4.5446 backed -0.2218
-4.5446 background -0.2218
-4.5446 backing -0.2218
-4.5446 backup -0.2218
-4.5446 bacteria -0.2218
-4.5446 bacterial -0.2218
-4.5446 baghdad -0.2218
-4.5446 bahamas -0.2218
-4.5446 bahrain -0.2218
-4.5446 bailey -0.2218
-4.5446 baking -0.2218
-4.5446 balance -0.2218
-4.5446 balanced -0.2218
-4.5446 ballet -0.2218
-4.5446 balloon -0.2218
-4.5446 ballot -0.2218
-4.5446 baltimore -0.2218
-4.5446 banana -0.2218
-4.5446 bandwidth -0.2218
-4.5446 bangbus -0.2218
-4.5446 bangkok -0.2218
-4.5446 bangladesh -0.2218
-4.5446 banking -0.2218
-4.5446 bankruptcy -0.2218
-4.5446 banned -0.2218
-4.5446 banner -0.2218
-4.5446 baptist -0.2218
-4.5446 barbados -0.2218
-4.5446 barbara -0.2218
-4.5446 barbie -0.2218
-4.5446 barcelona -0.2218
-4.5446 barely -0.2218
-4.5446 bargain -0.2218
-4.5446 barnes -0.2218
-4.5446 barrel -0.2218
-4.5446 baseball -0.2218
-4.5446 baseline -0.2218
-4.5446 basement -0.2218
-4.5446 basename -0.2218
-4.5446 basically -0.2218
-4.5446 basket -0.2218
-4.5446 basketball -0.2218
-4.5446 bathroom -0.2218
-4.5446 batman -0.2218
-4.5446 battery -0.2218
-4.5446 battle -0.2218
-4.5446 battlefield -0.2218
-4.5446 beach -0.2218
-4.5446 beads -0.2218
-4.5446 beans -0.2218
-4.5446 bearing -0.2218
-4.5446 bears -0.2218
-4.5446 beast -0.2218
-4.5446 beastality -0.2218
-4.5446 beastiality -0.2218
-4.5446 beatles -0.2218
-4.5446 beats -0.2218
-4.5446 beautiful -0.2218
-4.5446 beautifully -0.2218
-4.5446 beauty -0.2218
-4.5446 beaver -0.2218
-4.5446 became -0.2218
-4.5446 because -0.2218
-4.5446 become -0.2218
-4.5446 becoming -0.2218
-4.5446 bedding -0.2218
-4.5446 bedford -0.2218
-4.5446 bedroom -0.2218
-4.5446 before -0.2218
-4.5446 began -0.2218
-4.5446 begin -0.2218
-4.5446 beginner -0.2218
-4.5446 beginning -0.2218
-4.5446 begun -0.2218
-4.5446 behalf -0.2218
-4.5446 behavior -0.2218
-4.5446 behavioral -0.2218
-4.5446 behaviour -0.2218
-4.5446 behind -0.2218
-4.5446 beijing -0.2218
-4.5446 being -0.2218
-4.5446 belarus -0.2218
-4.5446 belfast -0.2218
-4.5446 belgium -0.2218
-4.5446 belief -0.2218
-4.5446 believe -0.2218
-4.5446 believed -0.2218
-4.5446 belize -0.2218
-4.5446 belkin -0.2218
-4.5446 belle -0.2218
-4.5446 belly -0.2218
-4.5446 belong -0.2218
-4.5446 below -0.2218
-4.5446 belts -0.2218
-4.5446 bench -0.2218
-4.5446 benchmark -0.2218
-4.5446 beneath -0.2218
-4.5446 beneficial -0.2218
-4.5446 benefit -0.2218
-4.5446 benjamin -0.2218
-4.5446 bennett -0.2218
-4.5446 berkeley -0.2218
-4.5446 berlin -0.2218
-4.5446 bermuda -0.2218
-4.5446 bernard -0.2218
-4.5446 berry -0.2218
-4.5446 beside -0.2218
-4.5446 bestiality -0.2218
-4.5446 bestsellers -0.2218
-4.5446 better -0.2218
-4.5446 betty -0.2218
-4.5446 between -0.2218
-4.5446 beverage -0.2218
-4.5446 beverly -0.2218
-4.5446 beyond -0.2218
-4.5446 bhutan -0.2218
-4.5446 bible -0.2218
-4.5446 biblical -0.2218
-4.5446 bibliographic -0.2218
-4.5446 bibliography -0.2218
-4.5446 bicycle -0.2218
-4.5446 bidder -0.2218
-4.5446 bidding -0.2218
-4.5446 bigger -0.2218
-4.5446 biggest -0.2218
-4.5446 bikes -0.2218
-4.5446 bikini -0.2218
-4.5446 bills -0.2218
-4.5446 billy -0.2218
-4.5446 binary -0.2218
-4.5446 binding -0.2218
-4.5446 bingo -0.2218
-4.5446 biodiversity -0.2218
-4.5446 biography -0.2218
-4.5446 biological -0.2218
-4.5446 biology -0.2218
-4.5446 biotechnology -0.2218
-4.5446 birds -0.2218
-4.5446 birmingham -0.2218
-4.5446 birth -0.2218
-4.5446 birthday -0.2218
-4.5446 bishop -0.2218
-4.5446 bitch -0.2218
-4.5446 bizarre -0.2218
-4.5446 bizrate -0.2218
-4.5446 black -0.2218
-4.5446 blackberry -0.2218
-4.5446 blackjack -0.2218
-4.5446 blade -0.2218
-4.5446 blair -0.2218
-4.5446 blake -0.2218
-4.5446 blame -0.2218
-4.5446 blank -0.2218
-4.5446 blanket -0.2218
-4.5446 blast -0.2218
-4.5446 bleeding -0.2218
-4.5446 blend -0.2218
-4.5446 bless -0.2218
-4.5446 blind -0.2218
-4.5446 blink -0.2218
-4.5446 block -0.2218
-4.5446 blocking -0.2218
-4.5446 blogger -0.2218
-4.5446 blogging -0.2218
-4.5446 blogs -0.2218
-4.5446 blond -0.2218
-4.5446 blonde -0.2218
-4.5446 blood -0.2218
-4.5446 bloody -0.2218
-4.5446 bloom -0.2218
-4.5446 bloomberg -0.2218
-4.5446 blowing -0.2218
-4.5446 blowjob -0.2218
-4.5446 blues -0.2218
-4.5446 bluetooth -0.2218
-4.5446 boating -0.2218
-4.5446 bolivia -0.2218
-4.5446 bondage -0.2218
-4.5446 booking -0.2218
-4.5446 bookmark -0.2218
-4.5446 bookstore -0.2218
-4.5446 boolean -0.2218
-4.5446 border -0.2218
-4.5446 boring -0.2218
-4.5446 borough -0.2218
-4.5446 bosnia -0.2218
-4.5446 boston -0.2218
-4.5446 bother -0.2218
-4.5446 botswana -0.2218
-4.5446 bottle -0.2218
-4.5446 bottom -0.2218
-4.5446 bought -0.2218
-4.5446 boulder -0.2218
-4.5446 boulevard -0.2218
-4.5446 boundary -0.2218
-4.5446 bouquet -0.2218
-4.5446 boutique -0.2218
-4.5446 bowling -0.2218
-4.5446 boxing -0.2218
-4.5446 bracelet -0.2218
-4.5446 bracket -0.2218
-4.5446 bradford -0.2218
-4.5446 bradley -0.2218
-4.5446 brain -0.2218
-4.5446 brake -0.2218
-4.5446 branch -0.2218
-4.5446 brand -0.2218
-4.5446 brandon -0.2218
-4.5446 brass -0.2218
-4.5446 brave -0.2218
-4.5446 brazil -0.2218
-4.5446 brazilian -0.2218
-4.5446 breach -0.2218
-4.5446 bread -0.2218
-4.5446 break -0.2218
-4.5446 breakdown -0.2218
-4.5446 breakfast -0.2218
-4.5446 breaking -0.2218
-4.5446 breast -0.2218
-4.5446 breath -0.2218
-4.5446 breathing -0.2218
-4.5446 breed -0.2218
-4.5446 breeding -0.2218
-4.5446 brian -0.2218
-4.5446 brick -0.2218
-4.5446 bridal -0.2218
-4.5446 bride -0.2218
-4.5446 bridge -0.2218
-4.5446 brief -0.2218
-4.5446 briefing -0.2218
-4.5446 briefly -0.2218
-4.5446 bright -0.2218
-4.5446 brighton -0.2218
-4.5446 brilliant -0.2218
-4.5446 bring -0.2218
-4.5446 bringing -0.2218
-4.5446 brisbane -0.2218
-4.5446 bristol -0.2218
-4.5446 britain -0.2218
-4.5446 britannica -0.2218
-4.5446 british -0.2218
-4.5446 britney -0.2218
-4.5446 broad -0.2218
-4.5446 broadband -0.2218
-4.5446 broadcast -0.2218
-4.5446 broadcasting -0.2218
-4.5446 broader -0.2218
-4.5446 broadway -0.2218
-4.5446 brochure -0.2218
-4.5446 broke -0.2218
-4.5446 broken -0.2218
-4.5446 broker -0.2218
-4.5446 bronze -0.2218
-4.5446 brook -0.2218
-4.5446 brooklyn -0.2218
-4.5446 brother -0.2218
-4.5446 brought -0.2218
-4.5446 brown -0.2218
-4.5446 browse -0.2218
-4.5446 browser -0.2218
-4.5446 browsing -0.2218
-4.5446 bruce -0.2218
-4.5446 brunei -0.2218
-4.5446 brunette -0.2218
-4.5446 brunswick -0.2218
-4.5446 brush -0.2218
-4.5446 brussels -0.2218
-4.5446 brutal -0.2218
-4.5446 bryan -0.2218
-4.5446 bryant -0.2218
-4.5446 bubble -0.2218
-4.5446 budapest -0.2218
-4.5446 budget -0.2218
-4.5446 buffalo -0.2218
-4.5446 buffer -0.2218
-4.5446 bufing -0.2218
-4.5446 builder -0.2218
-4.5446 building -0.2218
-4.5446 bukkake -0.2218
-4.5446 bulgaria -0.2218
-4.5446 bulgarian -0.2218
-4.5446 bullet -0.2218
-4.5446 bulletin -0.2218
-4.5446 bumper -0.2218
-4.5446 bundle -0.2218
-4.5446 burden -0.2218
-4.5446 bureau -0.2218
-4.5446 buried -0.2218
-4.5446 burlington -0.2218
-4.5446 burner -0.2218
-4.5446 burning -0.2218
-4.5446 burton -0.2218
-4.5446 business -0.2218
-4.5446 butler -0.2218
-4.5446 butter -0.2218
-4.5446 butterfly -0.2218
-4.5446 button -0.2218
-4.5446 buying -0.2218
-4.5446 bytes -0.2218
-4.5446 cabin -0.2218
-4.5446 cabinet -0.2218
-4.5446 cable -0.2218
-4.5446 cache -0.2218
-4.5446 cached -0.2218
-4.5446 cadillac -0.2218
-4.5446 cakes -0.2218
-4.5446 calcium -0.2218
-4.5446 calculate -0.2218
-4.5446 calculated -0.2218
-4.5446 calculation -0.2218
-4.5446 calculator -0.2218
-4.5446 calendar -0.2218
-4.5446 calgary -0.2218
-4.5446 calibration -0.2218
-4.5446 california -0.2218
-4.5446 called -0.2218
-4.5446 calling -0.2218
-4.5446 calls -0.2218
-4.5446 calvin -0.2218
-4.5446 cambodia -0.2218
-4.5446 cambridge -0.2218
-4.5446 camcorder -0.2218
-4.5446 camel -0.2218
-4.5446 camera -0.2218
-4.5446 cameron -0.2218
-4.5446 cameroon -0.2218
-4.5446 campaign -0.2218
-4.5446 campbell -0.2218
-4.5446 camping -0.2218
-4.5446 camps -0.2218
-4.5446 campus -0.2218
-4.5446 canada -0.2218
-4.5446 canadian -0.2218
-4.5446 canal -0.2218
-4.5446 canberra -0.2218
-4.5446 cancel -0.2218
-4.5446 cancellation -0.2218
-4.5446 cancelled -0.2218
-4.5446 cancer -0.2218
-4.5446 candidate -0.2218
-4.5446 candle -0.2218
-4.5446 candy -0.2218
-4.5446 cannon -0.2218
-4.5446 canon -0.2218
-4.5446 canvas -0.2218
-4.5446 canyon -0.2218
-4.5446 capability -0.2218
-4.5446 capable -0.2218
-4.5446 capacity -0.2218
-4.5446 capital -0.2218
-4.5446 capitol -0.2218
-4.5446 captain -0.2218
-4.5446 capture -0.2218
-4.5446 captured -0.2218
-4.5446 carbon -0.2218
-4.5446 cardiac -0.2218
-4.5446 cardiff -0.2218
-4.5446 cardiovascular -0.2218
-4.5446 cards -0.2218
-4.5446 career -0.2218
-4.5446 carefully -0.2218
-4.5446 carey -0.2218
-4.5446 cargo -0.2218
-4.5446 caribbean -0.2218
-4.5446 caring -0.2218
-4.5446 carlo -0.2218
-4.5446 carmen -0.2218
-4.5446 carnival -0.2218
-4.5446 carol -0.2218
-4.5446 carolina -0.2218
-4.5446 caroline -0.2218
-4.5446 carpet -0.2218
-4.5446 carry -0.2218
-4.5446 carrying -0.2218
-4.5446 carter -0.2218
-4.5446 cartoon -0.2218
-4.5446 cartridge -0.2218
-4.5446 cases -0.2218
-4.5446 casey -0.2218
-4.5446 cashiers -0.2218
-4.5446 casino -0.2218
-4.5446 casio -0.2218
-4.5446 cassette -0.2218
-4.5446 casting -0.2218
-4.5446 castle -0.2218
-4.5446 casual -0.2218
-4.5446 catalog -0.2218
-4.5446 catalogue -0.2218
-4.5446 catalyst -0.2218
-4.5446 catch -0.2218
-4.5446 category -0.2218
-4.5446 catering -0.2218
-4.5446 cathedral -0.2218
-4.5446 catherine -0.2218
-4.5446 catholic -0.2218
-4.5446 cattle -0.2218
-4.5446 caught -0.2218
-4.5446 cause -0.2218
-4.5446 caused -0.2218
-4.5446 causing -0.2218
-4.5446 caution -0.2218
-4.5446 cayman -0.2218
-4.5446 cedar -0.2218
-4.5446 ceiling -0.2218
-4.5446 celebrate -0.2218
-4.5446 celebration -0.2218
-4.5446 celebrity -0.2218
-4.5446 celebs -0.2218
-4.5446 cells -0.2218
-4.5446 cellular -0.2218
-4.5446 celtic -0.2218
-4.5446 cement -0.2218
-4.5446 cemetery -0.2218
-4.5446 census -0.2218
-4.5446 center -0.2218
-4.5446 central -0.2218
-4.5446 centre -0.2218
-4.5446 cents -0.2218
-4.5446 century -0.2218
-4.5446 ceramic -0.2218
-4.5446 ceremony -0.2218
-4.5446 certain -0.2218
-4.5446 certainly -0.2218
-4.5446 certificate -0.2218
-4.5446 certification -0.2218
-4.5446 certified -0.2218
-4.5446 chain -0.2218
-4.5446 chair -0.2218
-4.5446 chairman -0.2218
-4.5446 challenge -0.2218
-4.5446 challenged -0.2218
-4.5446 challenging -0.2218
-4.5446 chamber -0.2218
-4.5446 champagne -0.2218
-4.5446 champion -0.2218
-4.5446 championship -0.2218
-4.5446 chance -0.2218
-4.5446 chancellor -0.2218
-4.5446 change -0.2218
-4.5446 changed -0.2218
-4.5446 changelog -0.2218
-4.5446 changing -0.2218
-4.5446 channel -0.2218
-4.5446 chaos -0.2218
-4.5446 chapel -0.2218
-4.5446 chapter -0.2218
-4.5446 character -0.2218
-4.5446 characteristic -0.2218
-4.5446 characterization -0.2218
-4.5446 characterized -0.2218
-4.5446 charge -0.2218
-4.5446 charged -0.2218
-4.5446 charger -0.2218
-4.5446 charging -0.2218
-4.5446 charitable -0.2218
-4.5446 charity -0.2218
-4.5446 charles -0.2218
-4.5446 charleston -0.2218
-4.5446 charlie -0.2218
-4.5446 charlotte -0.2218
-4.5446 charm -0.2218
-4.5446 charming -0.2218
-4.5446 chart -0.2218
-4.5446 charter -0.2218
-4.5446 chase -0.2218
-4.5446 chassis -0.2218
-4.5446 cheap -0.2218
-4.5446 cheaper -0.2218
-4.5446 cheapest -0.2218
-4.5446 cheat -0.2218
-4.5446 check -0.2218
-4.5446 checking -0.2218
-4.5446 checklist -0.2218
-4.5446 checkout -0.2218
-4.5446 cheers -0.2218
-4.5446 cheese -0.2218
-4.5446 chelsea -0.2218
-4.5446 chemical -0.2218
-4.5446 chemistry -0.2218
-4.5446 cheque -0.2218
-4.5446 cherry -0.2218
-4.5446 chess -0.2218
-4.5446 chest -0.2218
-4.5446 chester -0.2218
-4.5446 chevrolet -0.2218
-4.5446 chevy -0.2218
-4.5446 chicago -0.2218
-4.5446 chick -0.2218
-4.5446 chicken -0.2218
-4.5446 chief -0.2218
-4.5446 child -0.2218
-4.5446 childhood -0.2218
-4.5446 children -0.2218
-4.5446 chile -0.2218
-4.5446 china -0.2218
-4.5446 chinese -0.2218
-4.5446 chips -0.2218
-4.5446 chocolate -0.2218
-4.5446 choice -0.2218
-4.5446 choir -0.2218
-4.5446 cholesterol -0.2218
-4.5446 choose -0.2218
-4.5446 choosing -0.2218
-4.5446 chorus -0.2218
-4.5446 chose -0.2218
-4.5446 chosen -0.2218
-4.5446 chris -0.2218
-4.5446 christ -0.2218
-4.5446 christian -0.2218
-4.5446 christianity -0.2218
-4.5446 christina -0.2218
-4.5446 christine -0.2218
-4.5446 christmas -0.2218
-4.5446 christopher -0.2218
-4.5446 chrome -0.2218
-4.5446 chronic -0.2218
-4.5446 chronicle -0.2218
-4.5446 chrysler -0.2218
-4.5446 chubby -0.2218
-4.5446 chuck -0.2218
-4.5446 church -0.2218
-4.5446 cialis -0.2218
-4.5446 cigarette -0.2218
-4.5446 cincinnati -0.2218
-4.5446 cindy -0.2218
-4.5446 cinema -0.2218
-4.5446 cingular -0.2218
-4.5446 circle -0.2218
-4.5446 circuit -0.2218
-4.5446 circular -0.2218
-4.5446 circulation -0.2218
-4.5446 circumstances -0.2218
-4.5446 circus -0.2218
-4.5446 cisco -0.2218
-4.5446 citation -0.2218
-4.5446 cited -0.2218
-4.5446 citizen -0.2218
-4.5446 citizenship -0.2218
-4.5446 citysearch -0.2218
-4.5446 civic -0.2218
-4.5446 civil -0.2218
-4.5446 civilian -0.2218
-4.5446 civilization -0.2218
-4.5446 claim -0.2218
-4.5446 clara -0.2218
-4.5446 clarity -0.2218
-4.5446 clark -0.2218
-4.5446 class -0.2218
-4.5446 classic -0.2218
-4.5446 classical -0.2218
-4.5446 classification -0.2218
-4.5446 classified -0.2218
-4.5446 classroom -0.2218
-4.5446 clean -0.2218
-4.5446 cleaner -0.2218
-4.5446 cleaning -0.2218
-4.5446 cleanup -0.2218
-4.5446 clear -0.2218
-4.5446 clearance -0.2218
-4.5446 clearing -0.2218
-4.5446 clearly -0.2218
-4.5446 clerk -0.2218
-4.5446 cleveland -0.2218
-4.5446 click -0.2218
-4.5446 clicking -0.2218
-4.5446 client -0.2218
-4.5446 cliff -0.2218
-4.5446 climate -0.2218
-4.5446 climb -0.2218
-4.5446 climbing -0.2218
-4.5446 clinic -0.2218
-4.5446 clinical -0.2218
-4.5446 clinton -0.2218
-4.5446 clips -0.2218
-4.5446 clock -0.2218
-4.5446 clone -0.2218
-4.5446 close -0.2218
-4.5446 closed -0.2218
-4.5446 closely -0.2218
-4.5446 closer -0.2218
-4.5446 closest -0.2218
-4.5446 closing -0.2218
-4.5446 closure -0.2218
-4.5446 cloth -0.2218
-4.5446 clothing -0.2218
-4.5446 cloud -0.2218
-4.5446 cloudy -0.2218
-4.5446 clubs -0.2218
-4.5446 cluster -0.2218
-4.5446 coach -0.2218
-4.5446 coaching -0.2218
-4.5446 coalition -0.2218
-4.5446 coast -0.2218
-4.5446 coastal -0.2218
-4.5446 coated -0.2218
-4.5446 coating -0.2218
-4.5446 cocks -0.2218
-4.5446 cocktail -0.2218
-4.5446 codes -0.2218
-4.5446 coding -0.2218
-4.5446 coffee -0.2218
-4.5446 cognitive -0.2218
-4.5446 cohen -0.2218
-4.5446 coins -0.2218
-4.5446 coleman -0.2218
-4.5446 colin -0.2218
-4.5446 collaboration -0.2218
-4.5446 collaborative -0.2218
-4.5446 collapse -0.2218
-4.5446 collar -0.2218
-4.5446 colleague -0.2218
-4.5446 collect -0.2218
-4.5446 collectables -0.2218
-4.5446 collectible -0.2218
-4.5446 collecting -0.2218
-4.5446 collection -0.2218
-4.5446 collective -0.2218
-4.5446 collector -0.2218
-4.5446 college -0.2218
-4.5446 collins -0.2218
-4.5446 cologne -0.2218
-4.5446 colombia -0.2218
-4.5446 colon -0.2218
-4.5446 colony -0.2218
-4.5446 color -0.2218
-4.5446 colorado -0.2218
-4.5446 colour -0.2218
-4.5446 columbia -0.2218
-4.5446 columbus -0.2218
-4.5446 column -0.2218
-4.5446 columnists -0.2218
-4.5446 combat -0.2218
-4.5446 combination -0.2218
-4.5446 combine -0.2218
-4.5446 combined -0.2218
-4.5446 combining -0.2218
-4.5446 combo -0.2218
-4.5446 comedy -0.2218
-4.5446 comes -0.2218
-4.5446 comfort -0.2218
-4.5446 comfortable -0.2218
-4.5446 comic -0.2218
-4.5446 coming -0.2218
-4.5446 command -0.2218
-4.5446 commander -0.2218
-4.5446 comment -0.2218
-4.5446 commentary -0.2218
-4.5446 commerce -0.2218
-4.5446 commercial -0.2218
-4.5446 commission -0.2218
-4.5446 commissioner -0.2218
-4.5446 commit -0.2218
-4.5446 commitment -0.2218
-4.5446 committed -0.2218
-4.5446 committee -0.2218
-4.5446 commodity -0.2218
-4.5446 common -0.2218
-4.5446 commonly -0.2218
-4.5446 commonwealth -0.2218
-4.5446 communicate -0.2218
-4.5446 communication -0.2218
-4.5446 communist -0.2218
-4.5446 community -0.2218
-4.5446 compact -0.2218
-4.5446 company -0.2218
-4.5446 compaq -0.2218
-4.5446 comparable -0.2218
-4.5446 comparative -0.2218
-4.5446 compare -0.2218
-4.5446 compared -0.2218
-4.5446 comparing -0.2218
-4.5446 comparison -0.2218
-4.5446 compatibility -0.2218
-4.5446 compatible -0.2218
-4.5446 compensation -0.2218
-4.5446 compete -0.2218
-4.5446 competent -0.2218
-4.5446 competing -0.2218
-4.5446 competition -0.2218
-4.5446 competitive -0.2218
-4.5446 competitors -0.2218
-4.5446 compilation -0.2218
-4.5446 compile -0.2218
-4.5446 compiled -0.2218
-4.5446 compiler -0.2218
-4.5446 complaint -0.2218
-4.5446 complement -0.2218
-4.5446 completed -0.2218
-4.5446 completely -0.2218
-4.5446 completing -0.2218
-4.5446 completion -0.2218
-4.5446 complex -0.2218
-4.5446 complexity -0.2218
-4.5446 compliance -0.2218
-4.5446 compliant -0.2218
-4.5446 complicated -0.2218
-4.5446 complications -0.2218
-4.5446 complimentary -0.2218
-4.5446 comply -0.2218
-4.5446 component -0.2218
-4.5446 composed -0.2218
-4.5446 composer -0.2218
-4.5446 composite -0.2218
-4.5446 composition -0.2218
-4.5446 compound -0.2218
-4.5446 comprehensive -0.2218
-4.5446 compressed -0.2218
-4.5446 compression -0.2218
-4.5446 compromise -0.2218
-4.5446 computation -0.2218
-4.5446 computational -0.2218
-4.5446 compute -0.2218
-4.5446 computed -0.2218
-4.5446 computer -0.2218
-4.5446 computing -0.2218
-4.5446 concentrate -0.2218
-4.5446 concentration -0.2218
-4.5446 concept -0.2218
-4.5446 conceptual -0.2218
-4.5446 concern -0.2218
-4.5446 concerning -0.2218
-4.5446 concert -0.2218
-4.5446 conclude -0.2218
-4.5446 concluded -0.2218
-4.5446 conclusion -0.2218
-4.5446 concord -0.2218
-4.5446 concrete -0.2218
-4.5446 condition -0.2218
-4.5446 conditional -0.2218
-4.5446 conditioning -0.2218
-4.5446 condo -0.2218
-4.5446 conduct -0.2218
-4.5446 conducting -0.2218
-4.5446 conference -0.2218
-4.5446 conferencing -0.2218
-4.5446 confidence -0.2218
-4.5446 confident -0.2218
-4.5446 confidential -0.2218
-4.5446 confidentiality -0.2218
-4.5446 config -0.2218
-4.5446 configuration -0.2218
-4.5446 configure -0.2218
-4.5446 configured -0.2218
-4.5446 configuring -0.2218
-4.5446 confirm -0.2218
-4.5446 confirmation -0.2218
-4.5446 conflict -0.2218
-4.5446 confused -0.2218
-4.5446 confusion -0.2218
-4.5446 congo -0.2218
-4.5446 congratulations -0.2218
-4.5446 congress -0.2218
-4.5446 congressional -0.2218
-4.5446 conjunction -0.2218
-4.5446 connect -0.2218
-4.5446 connecticut -0.2218
-4.5446 connecting -0.2218
-4.5446 connection -0.2218
-4.5446 connectivity -0.2218
-4.5446 connector -0.2218
-4.5446 conscious -0.2218
-4.5446 consciousness -0.2218
-4.5446 consecutive -0.2218
-4.5446 consensus -0.2218
-4.5446 consent -0.2218
-4.5446 consequence -0.2218
-4.5446 consequently -0.2218
-4.5446 conservation -0.2218
-4.5446 conservative -0.2218
-4.5446 consider -0.2218
-4.5446 considerable -0.2218
-4.5446 consideration -0.2218
-4.5446 considering -0.2218
-4.5446 consist -0.2218
-4.5446 consistency -0.2218
-4.5446 consistent -0.2218
-4.5446 consistently -0.2218
-4.5446 consisting -0.2218
-4.5446 console -0.2218
-4.5446 consolidated -0.2218
-4.5446 consolidation -0.2218
-4.5446 consortium -0.2218
-4.5446 conspiracy -0.2218
-4.5446 const -0.2218
-4.5446 constant -0.2218
-4.5446 constantly -0.2218
-4.5446 constitute -0.2218
-4.5446 constitution -0.2218
-4.5446 constitutional -0.2218
-4.5446 constraint -0.2218
-4.5446 construct -0.2218
-4.5446 construction -0.2218
-4.5446 consult -0.2218
-4.5446 consultancy -0.2218
-4.5446 consultant -0.2218
-4.5446 consultation -0.2218
-4.5446 consulting -0.2218
-4.5446 consumer -0.2218
-4.5446 consumption -0.2218
-4.5446 contact -0.2218
-4.5446 contacting -0.2218
-4.5446 contain -0.2218
-4.5446 container -0.2218
-4.5446 containing -0.2218
-4.5446 contamination -0.2218
-4.5446 contemporary -0.2218
-4.5446 content -0.2218
-4.5446 contest -0.2218
-4.5446 context -0.2218
-4.5446 continent -0.2218
-4.5446 continental -0.2218
-4.5446 continually -0.2218
-4.5446 continue -0.2218
-4.5446 continued -0.2218
-4.5446 continuing -0.2218
-4.5446 continuity -0.2218
-4.5446 continuous -0.2218
-4.5446 continuously -0.2218
-4.5446 contract -0.2218
-4.5446 contracting -0.2218
-4.5446 contractor -0.2218
-4.5446 contrary -0.2218
-4.5446 contrast -0.2218
-4.5446 contribute -0.2218
-4.5446 contributed -0.2218
-4.5446 contributing -0.2218
-4.5446 contribution -0.2218
-4.5446 contributor -0.2218
-4.5446 control -0.2218
-4.5446 controlled -0.2218
-4.5446 controller -0.2218
-4.5446 controlling -0.2218
-4.5446 controversy -0.2218
-4.5446 convenience -0.2218
-4.5446 convenient -0.2218
-4.5446 convention -0.2218
-4.5446 conventional -0.2218
-4.5446 convergence -0.2218
-4.5446 conversation -0.2218
-4.5446 conversion -0.2218
-4.5446 convert -0.2218
-4.5446 converter -0.2218
-4.5446 convertible -0.2218
-4.5446 convicted -0.2218
-4.5446 conviction -0.2218
-4.5446 convinced -0.2218
-4.5446 cookbook -0.2218
-4.5446 cooked -0.2218
-4.5446 cookie -0.2218
-4.5446 cooking -0.2218
-4.5446 cooler -0.2218
-4.5446 cooling -0.2218
-4.5446 cooper -0.2218
-4.5446 cooperation -0.2218
-4.5446 cooperative -0.2218
-4.5446 coordinate -0.2218
-4.5446 coordinated -0.2218
-4.5446 coordination -0.2218
-4.5446 coordinator -0.2218
-4.5446 copying -0.2218
-4.5446 copyright -0.2218
-4.5446 coral -0.2218
-4.5446 cordless -0.2218
-4.5446 cornell -0.2218
-4.5446 corner -0.2218
-4.5446 cornwall -0.2218
-4.5446 corporate -0.2218
-4.5446 corporation -0.2218
-4.5446 corps -0.2218
-4.5446 corpus -0.2218
-4.5446 correct -0.2218
-4.5446 correction -0.2218
-4.5446 correctly -0.2218
-4.5446 correlation -0.2218
-4.5446 correspondence -0.2218
-4.5446 corresponding -0.2218
-4.5446 corruption -0.2218
-4.5446 cosmetic -0.2218
-4.5446 costa -0.2218
-4.5446 costs -0.2218
-4.5446 costume -0.2218
-4.5446 cottage -0.2218
-4.5446 cotton -0.2218
-4.5446 could -0.2218
-4.5446 council -0.2218
-4.5446 counsel -0.2218
-4.5446 counseling -0.2218
-4.5446 count -0.2218
-4.5446 counter -0.2218
-4.5446 country -0.2218
-4.5446 county -0.2218
-4.5446 couple -0.2218
-4.5446 coupled -0.2218
-4.5446 coupon -0.2218
-4.5446 courage -0.2218
-4.5446 courier -0.2218
-4.5446 course -0.2218
-4.5446 court -0.2218
-4.5446 courtesy -0.2218
-4.5446 cover -0.2218
-4.5446 coverage -0.2218
-4.5446 covering -0.2218
-4.5446 cowboy -0.2218
-4.5446 cradle -0.2218
-4.5446 crawford -0.2218
-4.5446 create -0.2218
-4.5446 created -0.2218
-4.5446 creating -0.2218
-4.5446 creation -0.2218
-4.5446 creative -0.2218
-4.5446 creativity -0.2218
-4.5446 creator -0.2218
-4.5446 creature -0.2218
-4.5446 credit -0.2218
-4.5446 cricket -0.2218
-4.5446 criminal -0.2218
-4.5446 crisis -0.2218
-4.5446 criteria -0.2218
-4.5446 criterion -0.2218
-4.5446 critical -0.2218
-4.5446 criticism -0.2218
-4.5446 critics -0.2218
-4.5446 croatia -0.2218
-4.5446 crossing -0.2218
-4.5446 crossword -0.2218
-4.5446 crucial -0.2218
-4.5446 cruise -0.2218
-4.5446 crystal -0.2218
-4.5446 cubic -0.2218
-4.5446 cuisine -0.2218
-4.5446 cultural -0.2218
-4.5446 culture -0.2218
-4.5446 cumshot -0.2218
-4.5446 cumulative -0.2218
-4.5446 curious -0.2218
-4.5446 currency -0.2218
-4.5446 current -0.2218
-4.5446 currently -0.2218
-4.5446 curriculum -0.2218
-4.5446 cursor -0.2218
-4.5446 curtis -0.2218
-4.5446 curve -0.2218
-4.5446 custody -0.2218
-4.5446 custom -0.2218
-4.5446 customer -0.2218
-4.5446 customise -0.2218
-4.5446 customize -0.2218
-4.5446 customized -0.2218
-4.5446 cutting -0.2218
-4.5446 cyber -0.2218
-4.5446 cycle -0.2218
-4.5446 cycling -0.2218
-4.5446 cylinder -0.2218
-4.5446 cyprus -0.2218
-4.5446 czech -0.2218
-4.5446 dakota -0.2218
-4.5446 dallas -0.2218
-4.5446 damage -0.2218
-4.5446 damaged -0.2218
-4.5446 dancing -0.2218
-4.5446 danger -0.2218
-4.5446 dangerous -0.2218
-4.5446 daniel -0.2218
-4.5446 danish -0.2218
-4.5446 darkness -0.2218
-4.5446 darwin -0.2218
-4.5446 database -0.2218
-4.5446 dating -0.2218
-4.5446 daughter -0.2218
-4.5446 davidson -0.2218
-4.5446 dayton -0.2218
-4.5446 deadly -0.2218
-4.5446 dealer -0.2218
-4.5446 dealing -0.2218
-4.5446 deals -0.2218
-4.5446 dealt -0.2218
-4.5446 dealtime -0.2218
-4.5446 death -0.2218
-4.5446 debate -0.2218
-4.5446 debian -0.2218
-4.5446 deborah -0.2218
-4.5446 debug -0.2218
-4.5446 debut -0.2218
-4.5446 decade -0.2218
-4.5446 december -0.2218
-4.5446 decent -0.2218
-4.5446 decide -0.2218
-4.5446 decided -0.2218
-4.5446 decimal -0.2218
-4.5446 decision -0.2218
-4.5446 declaration -0.2218
-4.5446 declare -0.2218
-4.5446 declared -0.2218
-4.5446 decline -0.2218
-4.5446 declined -0.2218
-4.5446 decor -0.2218
-4.5446 decorating -0.2218
-4.5446 decorative -0.2218
-4.5446 decrease -0.2218
-4.5446 decreased -0.2218
-4.5446 dedicated -0.2218
-4.5446 deemed -0.2218
-4.5446 deeper -0.2218
-4.5446 deeply -0.2218
-4.5446 default -0.2218
-4.5446 defeat -0.2218
-4.5446 defects -0.2218
-4.5446 defence -0.2218
-4.5446 defend -0.2218
-4.5446 defendant -0.2218
-4.5446 defense -0.2218
-4.5446 defensive -0.2218
-4.5446 deferred -0.2218
-4.5446 deficit -0.2218
-4.5446 define -0.2218
-4.5446 defined -0.2218
-4.5446 defining -0.2218
-4.5446 definitely -0.2218
-4.5446 definition -0.2218
-4.5446 degree -0.2218
-4.5446 delaware -0.2218
-4.5446 delay -0.2218
-4.5446 delegation -0.2218
-4.5446 delete -0.2218
-4.5446 deleted -0.2218
-4.5446 delhi -0.2218
-4.5446 delicious -0.2218
-4.5446 delight -0.2218
-4.5446 deliver -0.2218
-4.5446 delivery -0.2218
-4.5446 delta -0.2218
-4.5446 deluxe -0.2218
-4.5446 demand -0.2218
-4.5446 demanding -0.2218
-4.5446 democracy -0.2218
-4.5446 democrat -0.2218
-4.5446 democratic -0.2218
-4.5446 demographic -0.2218
-4.5446 demonstrate -0.2218
-4.5446 demonstrated -0.2218
-4.5446 demonstration -0.2218
-4.5446 denmark -0.2218
-4.5446 dense -0.2218
-4.5446 density -0.2218
-4.5446 dentists -0.2218
-4.5446 department -0.2218
-4.5446 departmental -0.2218
-4.5446 departure -0.2218
-4.5446 depend -0.2218
-4.5446 dependence -0.2218
-4.5446 dependent -0.2218
-4.5446 depending -0.2218
-4.5446 deployment -0.2218
-4.5446 deposit -0.2218
-4.5446 depot -0.2218
-4.5446 depression -0.2218
-4.5446 depth -0.2218
-4.5446 deputy -0.2218
-4.5446 derby -0.2218
-4.5446 derek -0.2218
-4.5446 derived -0.2218
-4.5446 descending -0.2218
-4.5446 describe -0.2218
-4.5446 described -0.2218
-4.5446 describing -0.2218
-4.5446 description -0.2218
-4.5446 desert -0.2218
-4.5446 deserve -0.2218
-4.5446 design -0.2218
-4.5446 designated -0.2218
-4.5446 designation -0.2218
-4.5446 designer -0.2218
-4.5446 designing -0.2218
-4.5446 desirable -0.2218
-4.5446 desire -0.2218
-4.5446 desired -0.2218
-4.5446 desktop -0.2218
-4.5446 desperate -0.2218
-4.5446 despite -0.2218
-4.5446 destination -0.2218
-4.5446 destiny -0.2218
-4.5446 destroy -0.2218
-4.5446 destruction -0.2218
-4.5446 detail -0.2218
-4.5446 detect -0.2218
-4.5446 detection -0.2218
-4.5446 detective -0.2218
-4.5446 detector -0.2218
-4.5446 determination -0.2218
-4.5446 determine -0.2218
-4.5446 determined -0.2218
-4.5446 determining -0.2218
-4.5446 detroit -0.2218
-4.5446 deutsch -0.2218
-4.5446 deutsche -0.2218
-4.5446 deutschland -0.2218
-4.5446 devel -0.2218
-4.5446 develop -0.2218
-4.5446 developer -0.2218
-4.5446 developing -0.2218
-4.5446 development -0.2218
-4.5446 developmental -0.2218
-4.5446 deviant -0.2218
-4.5446 deviation -0.2218
-4.5446 device -0.2218
-4.5446 devil -0.2218
-4.5446 devon -0.2218
-4.5446 devoted -0.2218
-4.5446 diabetes -0.2218
-4.5446 diagnosis -0.2218
-4.5446 diagnostic -0.2218
-4.5446 diagram -0.2218
-4.5446 dialog -0.2218
-4.5446 dialogue -0.2218
-4.5446 diameter -0.2218
-4.5446 diamond -0.2218
-4.5446 dictionary -0.2218
-4.5446 diesel -0.2218
-4.5446 dietary -0.2218
-4.5446 differ -0.2218
-4.5446 difference -0.2218
-4.5446 different -0.2218
-4.5446 differential -0.2218
-4.5446 differently -0.2218
-4.5446 difficult -0.2218
-4.5446 difficulty -0.2218
-4.5446 digest -0.2218
-4.5446 digital -0.2218
-4.5446 dimension -0.2218
-4.5446 dimensional -0.2218
-4.5446 dining -0.2218
-4.5446 dinner -0.2218
-4.5446 diploma -0.2218
-4.5446 direct -0.2218
-4.5446 direction -0.2218
-4.5446 directive -0.2218
-4.5446 directly -0.2218
-4.5446 director -0.2218
-4.5446 directory -0.2218
-4.5446 disability -0.2218
-4.5446 disable -0.2218
-4.5446 disabled -0.2218
-4.5446 disagree -0.2218
-4.5446 disappointed -0.2218
-4.5446 disaster -0.2218
-4.5446 discharge -0.2218
-4.5446 disciplinary -0.2218
-4.5446 discipline -0.2218
-4.5446 disclaimer -0.2218
-4.5446 disclose -0.2218
-4.5446 disclosure -0.2218
-4.5446 discount -0.2218
-4.5446 discover -0.2218
-4.5446 discovery -0.2218
-4.5446 discrete -0.2218
-4.5446 discretion -0.2218
-4.5446 discrimination -0.2218
-4.5446 discuss -0.2218
-4.5446 discussing -0.2218
-4.5446 discussion -0.2218
-4.5446 disease -0.2218
-4.5446 dishes -0.2218
-4.5446 disney -0.2218
-4.5446 disorder -0.2218
-4.5446 dispatch -0.2218
-4.5446 display -0.2218
-4.5446 displaying -0.2218
-4.5446 disposal -0.2218
-4.5446 disposition -0.2218
-4.5446 dispute -0.2218
-4.5446 distance -0.2218
-4.5446 distant -0.2218
-4.5446 distinct -0.2218
-4.5446 distinction -0.2218
-4.5446 distinguished -0.2218
-4.5446 distribute -0.2218
-4.5446 distributed -0.2218
-4.5446 distribution -0.2218
-4.5446 distributor -0.2218
-4.5446 district -0.2218
-4.5446 disturbed -0.2218
-4.5446 diverse -0.2218
-4.5446 diversity -0.2218
-4.5446 divide -0.2218
-4.5446 divided -0.2218
-4.5446 dividend -0.2218
-4.5446 divine -0.2218
-4.5446 diving -0.2218
-4.5446 division -0.2218
-4.5446 divorce -0.2218
-4.5446 doctor -0.2218
-4.5446 doctrine -0.2218
-4.5446 document -0.2218
-4.5446 documentary -0.2218
-4.5446 documentation -0.2218
-4.5446 dodge -0.2218
-4.5446 doing -0.2218
-4.5446 dollar -0.2218
-4.5446 dolls -0.2218
-4.5446 domain -0.2218
-4.5446 domestic -0.2218
-4.5446 dominant -0.2218
-4.5446 dominican -0.2218
-4.5446 donald -0.2218
-4.5446 donate -0.2218
-4.5446 donated -0.2218
-4.5446 donation -0.2218
-4.5446 donna -0.2218
-4.5446 donor -0.2218
-4.5446 doors -0.2218
-4.5446 dosage -0.2218
-4.5446 double -0.2218
-4.5446 doubt -0.2218
-4.5446 douglas -0.2218
-4.5446 dover -0.2218
-4.5446 download -0.2218
-4.5446 downloadable -0.2218
-4.5446 downloading -0.2218
-4.5446 downtown -0.2218
-4.5446 dozen -0.2218
-4.5446 dragon -0.2218
-4.5446 drainage -0.2218
-4.5446 dramatic -0.2218
-4.5446 dramatically -0.2218
-4.5446 drawing -0.2218
-4.5446 dressing -0.2218
-4.5446 drilling -0.2218
-4.5446 drinking -0.2218
-4.5446 driven -0.2218
-4.5446 driver -0.2218
-4.5446 driving -0.2218
-4.5446 dropped -0.2218
-4.5446 dubai -0.2218
-4.5446 dublin -0.2218
-4.5446 duncan -0.2218
-4.5446 duplicate -0.2218
-4.5446 durable -0.2218
-4.5446 duration -0.2218
-4.5446 durham -0.2218
-4.5446 during -0.2218
-4.5446 dutch -0.2218
-4.5446 dying -0.2218
-4.5446 dylan -0.2218
-4.5446 dynamic -0.2218
-4.5446 eagle -0.2218
-4.5446 earliest -0.2218
-4.5446 early -0.2218
-4.5446 earned -0.2218
-4.5446 earning -0.2218
-4.5446 earrings -0.2218
-4.5446 earth -0.2218
-4.5446 earthquake -0.2218
-4.5446 eastern -0.2218
-4.5446 eating -0.2218
-4.5446 ebony -0.2218
-4.5446 ebook -0.2218
-4.5446 eclipse -0.2218
-4.5446 ecological -0.2218
-4.5446 ecology -0.2218
-4.5446 ecommerce -0.2218
-4.5446 economic -0.2218
-4.5446 economy -0.2218
-4.5446 ecuador -0.2218
-4.5446 eddie -0.2218
-4.5446 edgar -0.2218
-4.5446 edges -0.2218
-4.5446 edinburgh -0.2218
-4.5446 edited -0.2218
-4.5446 editing -0.2218
-4.5446 edition -0.2218
-4.5446 editor -0.2218
-4.5446 editorial -0.2218
-4.5446 edmonton -0.2218
-4.5446 educated -0.2218
-4.5446 education -0.2218
-4.5446 educational -0.2218
-4.5446 educators -0.2218
-4.5446 edward -0.2218
-4.5446 effect -0.2218
-4.5446 effective -0.2218
-4.5446 effectively -0.2218
-4.5446 effectiveness -0.2218
-4.5446 efficiency -0.2218
-4.5446 efficient -0.2218
-4.5446 efficiently -0.2218
-4.5446 effort -0.2218
-4.5446 egypt -0.2218
-4.5446 egyptian -0.2218
-4.5446 eight -0.2218
-4.5446 either -0.2218
-4.5446 ejaculation -0.2218
-4.5446 elder -0.2218
-4.5446 elderly -0.2218
-4.5446 elect -0.2218
-4.5446 election -0.2218
-4.5446 electoral -0.2218
-4.5446 electric -0.2218
-4.5446 electrical -0.2218
-4.5446 electricity -0.2218
-4.5446 electro -0.2218
-4.5446 electron -0.2218
-4.5446 electronic -0.2218
-4.5446 elegant -0.2218
-4.5446 element -0.2218
-4.5446 elementary -0.2218
-4.5446 elephant -0.2218
-4.5446 elevation -0.2218
-4.5446 eleven -0.2218
-4.5446 eligibility -0.2218
-4.5446 eligible -0.2218
-4.5446 eliminate -0.2218
-4.5446 elimination -0.2218
-4.5446 elite -0.2218
-4.5446 elizabeth -0.2218
-4.5446 ellen -0.2218
-4.5446 elliott -0.2218
-4.5446 ellis -0.2218
-4.5446 elsewhere -0.2218
-4.5446 elvis -0.2218
-4.5446 emacs -0.2218
-4.5446 email -0.2218
-4.5446 embassy -0.2218
-4.5446 embedded -0.2218
-4.5446 emerald -0.2218
-4.5446 emergency -0.2218
-4.5446 emerging -0.2218
-4.5446 emily -0.2218
-4.5446 eminem -0.2218
-4.5446 emirates -0.2218
-4.5446 emission -0.2218
-4.5446 emotional -0.2218
-4.5446 emotions -0.2218
-4.5446 emperor -0.2218
-4.5446 emphasis -0.2218
-4.5446 empire -0.2218
-4.5446 empirical -0.2218
-4.5446 employ -0.2218
-4.5446 employment -0.2218
-4.5446 empty -0.2218
-4.5446 enable -0.2218
-4.5446 enabled -0.2218
-4.5446 enabling -0.2218
-4.5446 enclosed -0.2218
-4.5446 enclosure -0.2218
-4.5446 encoding -0.2218
-4.5446 encounter -0.2218
-4.5446 encourage -0.2218
-4.5446 encouraged -0.2218
-4.5446 encouraging -0.2218
-4.5446 encryption -0.2218
-4.5446 encyclopedia -0.2218
-4.5446 endangered -0.2218
-4.5446 ended -0.2218
-4.5446 endif -0.2218
-4.5446 ending -0.2218
-4.5446 endless -0.2218
-4.5446 endorsed -0.2218
-4.5446 endorsement -0.2218
-4.5446 enemy -0.2218
-4.5446 energy -0.2218
-4.5446 enforcement -0.2218
-4.5446 engage -0.2218
-4.5446 engaged -0.2218
-4.5446 engagement -0.2218
-4.5446 engaging -0.2218
-4.5446 engine -0.2218
-4.5446 engineer -0.2218
-4.5446 engineering -0.2218
-4.5446 england -0.2218
-4.5446 english -0.2218
-4.5446 enhance -0.2218
-4.5446 enhanced -0.2218
-4.5446 enhancement -0.2218
-4.5446 enhancing -0.2218
-4.5446 enjoy -0.2218
-4.5446 enjoying -0.2218
-4.5446 enlarge -0.2218
-4.5446 enlargement -0.2218
-4.5446 enormous -0.2218
-4.5446 enough -0.2218
-4.5446 enquiry -0.2218
-4.5446 enrolled -0.2218
-4.5446 enrollment -0.2218
-4.5446 ensemble -0.2218
-4.5446 ensure -0.2218
-4.5446 ensuring -0.2218
-4.5446 enter -0.2218
-4.5446 entering -0.2218
-4.5446 enterprise -0.2218
-4.5446 entertaining -0.2218
-4.5446 entertainment -0.2218
-4.5446 entire -0.2218
-4.5446 entirely -0.2218
-4.5446 entity -0.2218
-4.5446 entrance -0.2218
-4.5446 entrepreneur -0.2218
-4.5446 entry -0.2218
-4.5446 envelope -0.2218
-4.5446 environment -0.2218
-4.5446 environmental -0.2218
-4.5446 enzyme -0.2218
-4.5446 epinions -0.2218
-4.5446 episode -0.2218
-4.5446 epson -0.2218
-4.5446 equal -0.2218
-4.5446 equality -0.2218
-4.5446 equally -0.2218
-4.5446 equation -0.2218
-4.5446 equilibrium -0.2218
-4.5446 equipment -0.2218
-4.5446 equipped -0.2218
-4.5446 equity -0.2218
-4.5446 equivalent -0.2218
-4.5446 ericsson -0.2218
-4.5446 erotic -0.2218
-4.5446 erotica -0.2218
-4.5446 error -0.2218
-4.5446 escape -0.2218
-4.5446 escort -0.2218
-4.5446 especially -0.2218
-4.5446 essay -0.2218
-4.5446 essence -0.2218
-4.5446 essential -0.2218
-4.5446 essentially -0.2218
-4.5446 essex -0.2218
-4.5446 establish -0.2218
-4.5446 establishing -0.2218
-4.5446 establishment -0.2218
-4.5446 estate -0.2218
-4.5446 estimate -0.2218
-4.5446 estimated -0.2218
-4.5446 estimation -0.2218
-4.5446 estonia -0.2218
-4.5446 eternal -0.2218
-4.5446 ethernet -0.2218
-4.5446 ethical -0.2218
-4.5446 ethics -0.2218
-4.5446 ethiopia -0.2218
-4.5446 ethnic -0.2218
-4.5446 eugene -0.2218
-4.5446 europe -0.2218
-4.5446 european -0.2218
-4.5446 euros -0.2218
-4.5446 evaluate -0.2218
-4.5446 evaluated -0.2218
-4.5446 evaluating -0.2218
-4.5446 evaluation -0.2218
-4.5446 evanescence -0.2218
-4.5446 evans -0.2218
-4.5446 evening -0.2218
-4.5446 event -0.2218
-4.5446 eventually -0.2218
-4.5446 every -0.2218
-4.5446 everybody -0.2218
-4.5446 everyday -0.2218
-4.5446 everyone -0.2218
-4.5446 everything -0.2218
-4.5446 everywhere -0.2218
-4.5446 evidence -0.2218
-4.5446 evident -0.2218
-4.5446 evolution -0.2218
-4.5446 exact -0.2218
-4.5446 exactly -0.2218
-4.5446 examination -0.2218
-4.5446 examine -0.2218
-4.5446 examined -0.2218
-4.5446 examining -0.2218
-4.5446 example -0.2218
-4.5446 exams -0.2218
-4.5446 exceed -0.2218
-4.5446 excel -0.2218
-4.5446 excellence -0.2218
-4.5446 excellent -0.2218
-4.5446 except -0.2218
-4.5446 exception -0.2218
-4.5446 exceptional -0.2218
-4.5446 excerpt -0.2218
-4.5446 excess -0.2218
-4.5446 excessive -0.2218
-4.5446 exchange -0.2218
-4.5446 excited -0.2218
-4.5446 excitement -0.2218
-4.5446 exciting -0.2218
-4.5446 exclude -0.2218
-4.5446 excluded -0.2218
-4.5446 excluding -0.2218
-4.5446 exclusion -0.2218
-4.5446 exclusive -0.2218
-4.5446 exclusively -0.2218
-4.5446 excuse -0.2218
-4.5446 execute -0.2218
-4.5446 executed -0.2218
-4.5446 execution -0.2218
-4.5446 executive -0.2218
-4.5446 exempt -0.2218
-4.5446 exemption -0.2218
-4.5446 exercise -0.2218
-4.5446 exhaust -0.2218
-4.5446 exhibit -0.2218
-4.5446 exhibition -0.2218
-4.5446 exist -0.2218
-4.5446 existence -0.2218
-4.5446 existing -0.2218
-4.5446 exotic -0.2218
-4.5446 expand -0.2218
-4.5446 expanding -0.2218
-4.5446 expansion -0.2218
-4.5446 expansys -0.2218
-4.5446 expect -0.2218
-4.5446 expectations -0.2218
-4.5446 expedia -0.2218
-4.5446 expenditure -0.2218
-4.5446 expense -0.2218
-4.5446 expensive -0.2218
-4.5446 experience -0.2218
-4.5446 experienced -0.2218
-4.5446 experiencing -0.2218
-4.5446 experiment -0.2218
-4.5446 experimental -0.2218
-4.5446 expert -0.2218
-4.5446 expertise -0.2218
-4.5446 expiration -0.2218
-4.5446 expired -0.2218
-4.5446 expires -0.2218
-4.5446 explain -0.2218
-4.5446 explaining -0.2218
-4.5446 explanation -0.2218
-4.5446 explicit -0.2218
-4.5446 explicitly -0.2218
-4.5446 exploration -0.2218
-4.5446 explore -0.2218
-4.5446 explorer -0.2218
-4.5446 exploring -0.2218
-4.5446 explosion -0.2218
-4.5446 export -0.2218
-4.5446 exposed -0.2218
-4.5446 exposure -0.2218
-4.5446 express -0.2218
-4.5446 expression -0.2218
-4.5446 extend -0.2218
-4.5446 extending -0.2218
-4.5446 extension -0.2218
-4.5446 extensive -0.2218
-4.5446 extent -0.2218
-4.5446 exterior -0.2218
-4.5446 external -0.2218
-4.5446 extra -0.2218
-4.5446 extract -0.2218
-4.5446 extraction -0.2218
-4.5446 extraordinary -0.2218
-4.5446 extreme -0.2218
-4.5446 extremely -0.2218
-4.5446 fabric -0.2218
-4.5446 fabulous -0.2218
-4.5446 faced -0.2218
-4.5446 faces -0.2218
-4.5446 facial -0.2218
-4.5446 facility -0.2218
-4.5446 facing -0.2218
-4.5446 factor -0.2218
-4.5446 factory -0.2218
-4.5446 facts -0.2218
-4.5446 faculty -0.2218
-4.5446 failed -0.2218
-4.5446 failing -0.2218
-4.5446 fails -0.2218
-4.5446 failure -0.2218
-4.5446 fairfield -0.2218
-4.5446 fairly -0.2218
-4.5446 fairy -0.2218
-4.5446 faith -0.2218
-4.5446 fallen -0.2218
-4.5446 falling -0.2218
-4.5446 falls -0.2218
-4.5446 false -0.2218
-4.5446 family -0.2218
-4.5446 famous -0.2218
-4.5446 fancy -0.2218
-4.5446 fantasy -0.2218
-4.5446 fares -0.2218
-4.5446 farmer -0.2218
-4.5446 farming -0.2218
-4.5446 farms -0.2218
-4.5446 fascinating -0.2218
-4.5446 fashion -0.2218
-4.5446 faster -0.2218
-4.5446 fastest -0.2218
-4.5446 fatal -0.2218
-4.5446 father -0.2218
-4.5446 fatty -0.2218
-4.5446 fault -0.2218
-4.5446 favor -0.2218
-4.5446 favorite -0.2218
-4.5446 favour -0.2218
-4.5446 favourite -0.2218
-4.5446 fears -0.2218
-4.5446 feature -0.2218
-4.5446 featured -0.2218
-4.5446 featuring -0.2218
-4.5446 february -0.2218
-4.5446 federal -0.2218
-4.5446 federation -0.2218
-4.5446 feedback -0.2218
-4.5446 feeding -0.2218
-4.5446 feeds -0.2218
-4.5446 feeling -0.2218
-4.5446 feels -0.2218
-4.5446 fellow -0.2218
-4.5446 fellowship -0.2218
-4.5446 female -0.2218
-4.5446 fence -0.2218
-4.5446 ferry -0.2218
-4.5446 festival -0.2218
-4.5446 fetish -0.2218
-4.5446 fever -0.2218
-4.5446 fewer -0.2218
-4.5446 fiber -0.2218
-4.5446 fibre -0.2218
-4.5446 fiction -0.2218
-4.5446 field -0.2218
-4.5446 fifth -0.2218
-4.5446 fifty -0.2218
-4.5446 fight -0.2218
-4.5446 fighter -0.2218
-4.5446 fighting -0.2218
-4.5446 figure -0.2218
-4.5446 figured -0.2218
-4.5446 filed -0.2218
-4.5446 filename -0.2218
-4.5446 files -0.2218
-4.5446 filing -0.2218
-4.5446 filled -0.2218
-4.5446 filling -0.2218
-4.5446 filme -0.2218
-4.5446 films -0.2218
-4.5446 filter -0.2218
-4.5446 filtering -0.2218
-4.5446 final -0.2218
-4.5446 finally -0.2218
-4.5446 finance -0.2218
-4.5446 financial -0.2218
-4.5446 financing -0.2218
-4.5446 findarticles -0.2218
-4.5446 finder -0.2218
-4.5446 finding -0.2218
-4.5446 findlaw -0.2218
-4.5446 finds -0.2218
-4.5446 finest -0.2218
-4.5446 finger -0.2218
-4.5446 fingering -0.2218
-4.5446 finish -0.2218
-4.5446 finishing -0.2218
-4.5446 finite -0.2218
-4.5446 finland -0.2218
-4.5446 finnish -0.2218
-4.5446 fioricet -0.2218
-4.5446 fired -0.2218
-4.5446 firefox -0.2218
-4.5446 fireplace -0.2218
-4.5446 fires -0.2218
-4.5446 firewall -0.2218
-4.5446 firewire -0.2218
-4.5446 firms -0.2218
-4.5446 firmware -0.2218
-4.5446 first -0.2218
-4.5446 fiscal -0.2218
-4.5446 fisher -0.2218
-4.5446 fisheries -0.2218
-4.5446 fishing -0.2218
-4.5446 fisting -0.2218
-4.5446 fitness -0.2218
-4.5446 fitted -0.2218
-4.5446 fitting -0.2218
-4.5446 fixed -0.2218
-4.5446 fixes -0.2218
-4.5446 fixtures -0.2218
-4.5446 flashers -0.2218
-4.5446 flashing -0.2218
-4.5446 flavor -0.2218
-4.5446 fleece -0.2218
-4.5446 flexibility -0.2218
-4.5446 flexible -0.2218
-4.5446 flickr -0.2218
-4.5446 flight -0.2218
-4.5446 floating -0.2218
-4.5446 flooring -0.2218
-4.5446 floppy -0.2218
-4.5446 floral -0.2218
-4.5446 florence -0.2218
-4.5446 florida -0.2218
-4.5446 florist -0.2218
-4.5446 flower -0.2218
-4.5446 flying -0.2218
-4.5446 focal -0.2218
-4.5446 focus -0.2218
-4.5446 focusing -0.2218
-4.5446 folder -0.2218
-4.5446 folding -0.2218
-4.5446 folks -0.2218
-4.5446 follow -0.2218
-4.5446 following -0.2218
-4.5446 fonts -0.2218
-4.5446 foods -0.2218
-4.5446 footage -0.2218
-4.5446 football -0.2218
-4.5446 footwear -0.2218
-4.5446 forbes -0.2218
-4.5446 forbidden -0.2218
-4.5446 force -0.2218
-4.5446 forced -0.2218
-4.5446 forecast -0.2218
-4.5446 foreign -0.2218
-4.5446 forest -0.2218
-4.5446 forestry -0.2218
-4.5446 forever -0.2218
-4.5446 forge -0.2218
-4.5446 forget -0.2218
-4.5446 forgot -0.2218
-4.5446 forgotten -0.2218
-4.5446 formal -0.2218
-4.5446 format -0.2218
-4.5446 formation -0.2218
-4.5446 formatting -0.2218
-4.5446 formed -0.2218
-4.5446 former -0.2218
-4.5446 formerly -0.2218
-4.5446 forming -0.2218
-4.5446 forms -0.2218
-4.5446 formula -0.2218
-4.5446 forth -0.2218
-4.5446 forty -0.2218
-4.5446 forum -0.2218
-4.5446 forward -0.2218
-4.5446 forwarding -0.2218
-4.5446 fossil -0.2218
-4.5446 foster -0.2218
-4.5446 fotos -0.2218
-4.5446 fought -0.2218
-4.5446 found -0.2218
-4.5446 foundation -0.2218
-4.5446 founder -0.2218
-4.5446 fountain -0.2218
-4.5446 fourth -0.2218
-4.5446 fraction -0.2218
-4.5446 fragrance -0.2218
-4.5446 frame -0.2218
-4.5446 framed -0.2218
-4.5446 framework -0.2218
-4.5446 framing -0.2218
-4.5446 france -0.2218
-4.5446 franchise -0.2218
-4.5446 francis -0.2218
-4.5446 francisco -0.2218
-4.5446 frank -0.2218
-4.5446 frankfurt -0.2218
-4.5446 franklin -0.2218
-4.5446 fraser -0.2218
-4.5446 fraud -0.2218
-4.5446 frederick -0.2218
-4.5446 freebsd -0.2218
-4.5446 freedom -0.2218
-4.5446 freelance -0.2218
-4.5446 freely -0.2218
-4.5446 freeware -0.2218
-4.5446 freeze -0.2218
-4.5446 freight -0.2218
-4.5446 french -0.2218
-4.5446 frequency -0.2218
-4.5446 frequent -0.2218
-4.5446 frequently -0.2218
-4.5446 fresh -0.2218
-4.5446 friday -0.2218
-4.5446 fridge -0.2218
-4.5446 friend -0.2218
-4.5446 friendly -0.2218
-4.5446 friendship -0.2218
-4.5446 front -0.2218
-4.5446 frontier -0.2218
-4.5446 frontpage -0.2218
-4.5446 frost -0.2218
-4.5446 frozen -0.2218
-4.5446 fruit -0.2218
-4.5446 fucked -0.2218
-4.5446 fucking -0.2218
-4.5446 fujitsu -0.2218
-4.5446 fully -0.2218
-4.5446 function -0.2218
-4.5446 functional -0.2218
-4.5446 functionality -0.2218
-4.5446 functioning -0.2218
-4.5446 fundamental -0.2218
-4.5446 funded -0.2218
-4.5446 funding -0.2218
-4.5446 fundraising -0.2218
-4.5446 funds -0.2218
-4.5446 funeral -0.2218
-4.5446 funky -0.2218
-4.5446 funny -0.2218
-4.5446 furnished -0.2218
-4.5446 furnishings -0.2218
-4.5446 furniture -0.2218
-4.5446 further -0.2218
-4.5446 furthermore -0.2218
-4.5446 fusion -0.2218
-4.5446 future -0.2218
-4.5446 fuzzy -0.2218
-4.5446 gabriel -0.2218
-4.5446 gadgets -0.2218
-4.5446 gained -0.2218
-4.5446 galaxy -0.2218
-4.5446 gallery -0.2218
-4.5446 gambling -0.2218
-4.5446 gamecube -0.2218
-4.5446 gamespot -0.2218
-4.5446 gaming -0.2218
-4.5446 gangbang -0.2218
-4.5446 garbage -0.2218
-4.5446 gardening -0.2218
-4.5446 gasoline -0.2218
-4.5446 gateway -0.2218
-4.5446 gather -0.2218
-4.5446 gathering -0.2218
-4.5446 gazette -0.2218
-4.5446 gender -0.2218
-4.5446 genealogy -0.2218
-4.5446 general -0.2218
-4.5446 generally -0.2218
-4.5446 generate -0.2218
-4.5446 generated -0.2218
-4.5446 generating -0.2218
-4.5446 generation -0.2218
-4.5446 generator -0.2218
-4.5446 generic -0.2218
-4.5446 generous -0.2218
-4.5446 genes -0.2218
-4.5446 genesis -0.2218
-4.5446 genetic -0.2218
-4.5446 geneva -0.2218
-4.5446 genius -0.2218
-4.5446 genome -0.2218
-4.5446 genre -0.2218
-4.5446 gentle -0.2218
-4.5446 gentleman -0.2218
-4.5446 gently -0.2218
-4.5446 genuine -0.2218
-4.5446 geographic -0.2218
-4.5446 geographical -0.2218
-4.5446 geography -0.2218
-4.5446 geological -0.2218
-4.5446 geology -0.2218
-4.5446 geometry -0.2218
-4.5446 george -0.2218
-4.5446 georgia -0.2218
-4.5446 gerald -0.2218
-4.5446 german -0.2218
-4.5446 germany -0.2218
-4.5446 getting -0.2218
-4.5446 ghana -0.2218
-4.5446 ghost -0.2218
-4.5446 giant -0.2218
-4.5446 gibraltar -0.2218
-4.5446 gibson -0.2218
-4.5446 gifts -0.2218
-4.5446 gilbert -0.2218
-4.5446 girlfriend -0.2218
-4.5446 girls -0.2218
-4.5446 given -0.2218
-4.5446 gives -0.2218
-4.5446 giving -0.2218
-4.5446 glance -0.2218
-4.5446 glasgow -0.2218
-4.5446 glass -0.2218
-4.5446 glenn -0.2218
-4.5446 global -0.2218
-4.5446 globe -0.2218
-4.5446 glory -0.2218
-4.5446 glossary -0.2218
-4.5446 gloves -0.2218
-4.5446 glucose -0.2218
-4.5446 gnome -0.2218
-4.5446 goals -0.2218
-4.5446 going -0.2218
-4.5446 golden -0.2218
-4.5446 gonna -0.2218
-4.5446 goods -0.2218
-4.5446 google -0.2218
-4.5446 gordon -0.2218
-4.5446 gorgeous -0.2218
-4.5446 gospel -0.2218
-4.5446 gossip -0.2218
-4.5446 gothic -0.2218
-4.5446 gotta -0.2218
-4.5446 gotten -0.2218
-4.5446 gourmet -0.2218
-4.5446 governance -0.2218
-4.5446 governing -0.2218
-4.5446 government -0.2218
-4.5446 governmental -0.2218
-4.5446 governor -0.2218
-4.5446 grace -0.2218
-4.5446 grade -0.2218
-4.5446 gradually -0.2218
-4.5446 graduate -0.2218
-4.5446 graduated -0.2218
-4.5446 graduation -0.2218
-4.5446 grain -0.2218
-4.5446 grammar -0.2218
-4.5446 grams -0.2218
-4.5446 grand -0.2218
-4.5446 grant -0.2218
-4.5446 graph -0.2218
-4.5446 graphic -0.2218
-4.5446 graphical -0.2218
-4.5446 grass -0.2218
-4.5446 grateful -0.2218
-4.5446 gratuit -0.2218
-4.5446 grave -0.2218
-4.5446 gravity -0.2218
-4.5446 great -0.2218
-4.5446 greater -0.2218
-4.5446 greatest -0.2218
-4.5446 greatly -0.2218
-4.5446 greek -0.2218
-4.5446 green -0.2218
-4.5446 greenhouse -0.2218
-4.5446 greensboro -0.2218
-4.5446 greeting -0.2218
-4.5446 gregory -0.2218
-4.5446 grenada -0.2218
-4.5446 griffin -0.2218
-4.5446 grill -0.2218
-4.5446 grocery -0.2218
-4.5446 groove -0.2218
-4.5446 gross -0.2218
-4.5446 ground -0.2218
-4.5446 groundwater -0.2218
-4.5446 group -0.2218
-4.5446 grove -0.2218
-4.5446 growing -0.2218
-4.5446 grown -0.2218
-4.5446 grows -0.2218
-4.5446 growth -0.2218
-4.5446 guarantee -0.2218
-4.5446 guaranteed -0.2218
-4.5446 guardian -0.2218
-4.5446 guatemala -0.2218
-4.5446 guestbook -0.2218
-4.5446 guidance -0.2218
-4.5446 guided -0.2218
-4.5446 guidelines -0.2218
-4.5446 guilty -0.2218
-4.5446 guinea -0.2218
-4.5446 guitar -0.2218
-4.5446 guyana -0.2218
-4.5446 habitat -0.2218
-4.5446 habits -0.2218
-4.5446 hacker -0.2218
-4.5446 halifax -0.2218
-4.5446 halloween -0.2218
-4.5446 hamburg -0.2218
-4.5446 hamilton -0.2218
-4.5446 hammer -0.2218
-4.5446 hampshire -0.2218
-4.5446 hampton -0.2218
-4.5446 handbags -0.2218
-4.5446 handbook -0.2218
-4.5446 handed -0.2218
-4.5446 handheld -0.2218
-4.5446 handle -0.2218
-4.5446 handling -0.2218
-4.5446 handmade -0.2218
-4.5446 hanging -0.2218
-4.5446 hansen -0.2218
-4.5446 happen -0.2218
-4.5446 happening -0.2218
-4.5446 happiness -0.2218
-4.5446 harassment -0.2218
-4.5446 harbor -0.2218
-4.5446 harbour -0.2218
-4.5446 hardcore -0.2218
-4.5446 hardcover -0.2218
-4.5446 harder -0.2218
-4.5446 hardly -0.2218
-4.5446 hardware -0.2218
-4.5446 hardwood -0.2218
-4.5446 harley -0.2218
-4.5446 harmful -0.2218
-4.5446 harmony -0.2218
-4.5446 harold -0.2218
-4.5446 harper -0.2218
-4.5446 harris -0.2218
-4.5446 harrison -0.2218
-4.5446 hartford -0.2218
-4.5446 harvard -0.2218
-4.5446 harvest -0.2218
-4.5446 harvey -0.2218
-4.5446 having -0.2218
-4.5446 hawaii -0.2218
-4.5446 hawaiian -0.2218
-4.5446 hazard -0.2218
-4.5446 hazardous -0.2218
-4.5446 headed -0.2218
-4.5446 header -0.2218
-4.5446 heading -0.2218
-4.5446 headline -0.2218
-4.5446 headphones -0.2218
-4.5446 headquarters -0.2218
-4.5446 headset -0.2218
-4.5446 healing -0.2218
-4.5446 health -0.2218
-4.5446 healthcare -0.2218
-4.5446 healthy -0.2218
-4.5446 hearing -0.2218
-4.5446 heated -0.2218
-4.5446 heater -0.2218
-4.5446 heather -0.2218
-4.5446 heating -0.2218
-4.5446 heaven -0.2218
-4.5446 hebrew -0.2218
-4.5446 height -0.2218
-4.5446 helena -0.2218
-4.5446 helicopter -0.2218
-4.5446 helmet -0.2218
-4.5446 helped -0.2218
-4.5446 helpful -0.2218
-4.5446 helping -0.2218
-4.5446 henderson -0.2218
-4.5446 hentai -0.2218
-4.5446 hepatitis -0.2218
-4.5446 herald -0.2218
-4.5446 herbal -0.2218
-4.5446 hereby -0.2218
-4.5446 herein -0.2218
-4.5446 heritage -0.2218
-4.5446 heroes -0.2218
-4.5446 herself -0.2218
-4.5446 hewlett -0.2218
-4.5446 hidden -0.2218
-4.5446 hierarchy -0.2218
-4.5446 higher -0.2218
-4.5446 highest -0.2218
-4.5446 highlight -0.2218
-4.5446 highly -0.2218
-4.5446 highs -0.2218
-4.5446 highway -0.2218
-4.5446 hiking -0.2218
-4.5446 hills -0.2218
-4.5446 hilton -0.2218
-4.5446 himself -0.2218
-4.5446 hindu -0.2218
-4.5446 hints -0.2218
-4.5446 hired -0.2218
-4.5446 hiring -0.2218
-4.5446 hispanic -0.2218
-4.5446 historic -0.2218
-4.5446 historical -0.2218
-4.5446 history -0.2218
-4.5446 hitachi -0.2218
-4.5446 hitting -0.2218
-4.5446 hobby -0.2218
-4.5446 hockey -0.2218
-4.5446 holding -0.2218
-4.5446 holds -0.2218
-4.5446 holes -0.2218
-4.5446 holiday -0.2218
-4.5446 holly -0.2218
-4.5446 hollywood -0.2218
-4.5446 holocaust -0.2218
-4.5446 homeland -0.2218
-4.5446 homeless -0.2218
-4.5446 homepage -0.2218
-4.5446 homes -0.2218
-4.5446 hometown -0.2218
-4.5446 homework -0.2218
-4.5446 honda -0.2218
-4.5446 honduras -0.2218
-4.5446 honest -0.2218
-4.5446 honey -0.2218
-4.5446 honolulu -0.2218
-4.5446 honor -0.2218
-4.5446 hoped -0.2218
-4.5446 hopefully -0.2218
-4.5446 hopes -0.2218
-4.5446 hoping -0.2218
-4.5446 hopkins -0.2218
-4.5446 horizon -0.2218
-4.5446 horizontal -0.2218
-4.5446 hormone -0.2218
-4.5446 horny -0.2218
-4.5446 horrible -0.2218
-4.5446 horror -0.2218
-4.5446 horse -0.2218
-4.5446 hospital -0.2218
-4.5446 hospitality -0.2218
-4.5446 hosted -0.2218
-4.5446 hostel -0.2218
-4.5446 hosting -0.2218
-4.5446 hosts -0.2218
-4.5446 hotel -0.2218
-4.5446 hotmail -0.2218
-4.5446 hottest -0.2218
-4.5446 hourly -0.2218
-4.5446 hours -0.2218
-4.5446 house -0.2218
-4.5446 household -0.2218
-4.5446 housewares -0.2218
-4.5446 housewives -0.2218
-4.5446 housing -0.2218
-4.5446 houston -0.2218
-4.5446 howard -0.2218
-4.5446 however -0.2218
-4.5446 howto -0.2218
-4.5446 hudson -0.2218
-4.5446 hughes -0.2218
-4.5446 human -0.2218
-4.5446 humanitarian -0.2218
-4.5446 humanity -0.2218
-4.5446 humidity -0.2218
-4.5446 humor -0.2218
-4.5446 hundred -0.2218
-4.5446 hungary -0.2218
-4.5446 hunger -0.2218
-4.5446 hungry -0.2218
-4.5446 hunter -0.2218
-4.5446 hunting -0.2218
-4.5446 huntington -0.2218
-4.5446 hurricane -0.2218
-4.5446 husband -0.2218
-4.5446 hybrid -0.2218
-4.5446 hydraulic -0.2218
-4.5446 hydrocodone -0.2218
-4.5446 hydrogen -0.2218
-4.5446 hygiene -0.2218
-4.5446 hypothesis -0.2218
-4.5446 hypothetical -0.2218
-4.5446 hyundai -0.2218
-4.5446 iceland -0.2218
-4.5446 icons -0.2218
-4.5446 idaho -0.2218
-4.5446 ideal -0.2218
-4.5446 ideas -0.2218
-4.5446 identical -0.2218
-4.5446 identification -0.2218
-4.5446 identify -0.2218
-4.5446 identifying -0.2218
-4.5446 identity -0.2218
-4.5446 ignore -0.2218
-4.5446 ignored -0.2218
-4.5446 illegal -0.2218
-4.5446 illinois -0.2218
-4.5446 illness -0.2218
-4.5446 illustrated -0.2218
-4.5446 illustration -0.2218
-4.5446 image -0.2218
-4.5446 imagination -0.2218
-4.5446 imagine -0.2218
-4.5446 imaging -0.2218
-4.5446 immediate -0.2218
-4.5446 immediately -0.2218
-4.5446 immigrants -0.2218
-4.5446 immigration -0.2218
-4.5446 immune -0.2218
-4.5446 immunology -0.2218
-4.5446 impact -0.2218
-4.5446 impaired -0.2218
-4.5446 imperial -0.2218
-4.5446 implement -0.2218
-4.5446 implementation -0.2218
-4.5446 implementing -0.2218
-4.5446 implications -0.2218
-4.5446 implied -0.2218
-4.5446 implies -0.2218
-4.5446 import -0.2218
-4.5446 importance -0.2218
-4.5446 important -0.2218
-4.5446 importantly -0.2218
-4.5446 impose -0.2218
-4.5446 imposed -0.2218
-4.5446 impossible -0.2218
-4.5446 impressed -0.2218
-4.5446 impression -0.2218
-4.5446 impressive -0.2218
-4.5446 improve -0.2218
-4.5446 improved -0.2218
-4.5446 improvement -0.2218
-4.5446 improving -0.2218
-4.5446 inappropriate -0.2218
-4.5446 inbox -0.2218
-4.5446 incentive -0.2218
-4.5446 incest -0.2218
-4.5446 inches -0.2218
-4.5446 incidence -0.2218
-4.5446 incident -0.2218
-4.5446 include -0.2218
-4.5446 included -0.2218
-4.5446 including -0.2218
-4.5446 inclusion -0.2218
-4.5446 inclusive -0.2218
-4.5446 income -0.2218
-4.5446 incoming -0.2218
-4.5446 incomplete -0.2218
-4.5446 incorporate -0.2218
-4.5446 incorporated -0.2218
-4.5446 incorrect -0.2218
-4.5446 increase -0.2218
-4.5446 increased -0.2218
-4.5446 increasing -0.2218
-4.5446 increasingly -0.2218
-4.5446 incredible -0.2218
-4.5446 incurred -0.2218
-4.5446 indeed -0.2218
-4.5446 independence -0.2218
-4.5446 independent -0.2218
-4.5446 independently -0.2218
-4.5446 index -0.2218
-4.5446 india -0.2218
-4.5446 indian -0.2218
-4.5446 indiana -0.2218
-4.5446 indianapolis -0.2218
-4.5446 indicate -0.2218
-4.5446 indicated -0.2218
-4.5446 indicating -0.2218
-4.5446 indication -0.2218
-4.5446 indicator -0.2218
-4.5446 indices -0.2218
-4.5446 indie -0.2218
-4.5446 indigenous -0.2218
-4.5446 indirect -0.2218
-4.5446 individual -0.2218
-4.5446 individually -0.2218
-4.5446 indonesia -0.2218
-4.5446 indonesian -0.2218
-4.5446 indoor -0.2218
-4.5446 induced -0.2218
-4.5446 induction -0.2218
-4.5446 industry -0.2218
-4.5446 inexpensive -0.2218
-4.5446 infant -0.2218
-4.5446 infected -0.2218
-4.5446 infection -0.2218
-4.5446 infectious -0.2218
-4.5446 infinite -0.2218
-4.5446 inflation -0.2218
-4.5446 influence -0.2218
-4.5446 influenced -0.2218
-4.5446 inform -0.2218
-4.5446 informal -0.2218
-4.5446 information -0.2218
-4.5446 informational -0.2218
-4.5446 informative -0.2218
-4.5446 infrared -0.2218
-4.5446 infrastructure -0.2218
-4.5446 infringement -0.2218
-4.5446 ingredients -0.2218
-4.5446 inherited -0.2218
-4.5446 initial -0.2218
-4.5446 initially -0.2218
-4.5446 initiated -0.2218
-4.5446 initiative -0.2218
-4.5446 injection -0.2218
-4.5446 injured -0.2218
-4.5446 injury -0.2218
-4.5446 inkjet -0.2218
-4.5446 inline -0.2218
-4.5446 inner -0.2218
-4.5446 innocent -0.2218
-4.5446 innovation -0.2218
-4.5446 innovative -0.2218
-4.5446 input -0.2218
-4.5446 inquire -0.2218
-4.5446 inquiry -0.2218
-4.5446 insects -0.2218
-4.5446 insert -0.2218
-4.5446 insertion -0.2218
-4.5446 inside -0.2218
-4.5446 insider -0.2218
-4.5446 insight -0.2218
-4.5446 inspection -0.2218
-4.5446 inspector -0.2218
-4.5446 inspiration -0.2218
-4.5446 inspired -0.2218
-4.5446 install -0.2218
-4.5446 installation -0.2218
-4.5446 installing -0.2218
-4.5446 instance -0.2218
-4.5446 instant -0.2218
-4.5446 instantly -0.2218
-4.5446 instead -0.2218
-4.5446 institute -0.2218
-4.5446 institution -0.2218
-4.5446 institutional -0.2218
-4.5446 instruction -0.2218
-4.5446 instructional -0.2218
-4.5446 instructor -0.2218
-4.5446 instrument -0.2218
-4.5446 instrumental -0.2218
-4.5446 instrumentation -0.2218
-4.5446 insulation -0.2218
-4.5446 insulin -0.2218
-4.5446 insurance -0.2218
-4.5446 insured -0.2218
-4.5446 intake -0.2218
-4.5446 integer -0.2218
-4.5446 integral -0.2218
-4.5446 integrate -0.2218
-4.5446 integrated -0.2218
-4.5446 integrating -0.2218
-4.5446 integration -0.2218
-4.5446 integrity -0.2218
-4.5446 intel -0.2218
-4.5446 intellectual -0.2218
-4.5446 intelligence -0.2218
-4.5446 intelligent -0.2218
-4.5446 intend -0.2218
-4.5446 intense -0.2218
-4.5446 intensity -0.2218
-4.5446 intensive -0.2218
-4.5446 intent -0.2218
-4.5446 intention -0.2218
-4.5446 inter -0.2218
-4.5446 interact -0.2218
-4.5446 interaction -0.2218
-4.5446 interactive -0.2218
-4.5446 interest -0.2218
-4.5446 interesting -0.2218
-4.5446 interface -0.2218
-4.5446 interference -0.2218
-4.5446 interim -0.2218
-4.5446 interior -0.2218
-4.5446 intermediate -0.2218
-4.5446 internal -0.2218
-4.5446 international -0.2218
-4.5446 internationally -0.2218
-4.5446 internet -0.2218
-4.5446 internship -0.2218
-4.5446 interpretation -0.2218
-4.5446 interpreted -0.2218
-4.5446 interracial -0.2218
-4.5446 intersection -0.2218
-4.5446 interstate -0.2218
-4.5446 interval -0.2218
-4.5446 intervention -0.2218
-4.5446 interview -0.2218
-4.5446 intimate -0.2218
-4.5446 intranet -0.2218
-4.5446 intro -0.2218
-4.5446 introduce -0.2218
-4.5446 introduced -0.2218
-4.5446 introducing -0.2218
-4.5446 introduction -0.2218
-4.5446 introductory -0.2218
-4.5446 invalid -0.2218
-4.5446 invasion -0.2218
-4.5446 invention -0.2218
-4.5446 inventory -0.2218
-4.5446 invest -0.2218
-4.5446 investigate -0.2218
-4.5446 investigated -0.2218
-4.5446 investigation -0.2218
-4.5446 investigator -0.2218
-4.5446 investing -0.2218
-4.5446 investment -0.2218
-4.5446 investor -0.2218
-4.5446 invisible -0.2218
-4.5446 invision -0.2218
-4.5446 invitation -0.2218
-4.5446 invite -0.2218
-4.5446 invited -0.2218
-4.5446 invoice -0.2218
-4.5446 involve -0.2218
-4.5446 involved -0.2218
-4.5446 involvement -0.2218
-4.5446 involving -0.2218
-4.5446 iraqi -0.2218
-4.5446 ireland -0.2218
-4.5446 irish -0.2218
-4.5446 irrigation -0.2218
-4.5446 isaac -0.2218
-4.5446 islam -0.2218
-4.5446 islamic -0.2218
-4.5446 island -0.2218
-4.5446 isolated -0.2218
-4.5446 isolation -0.2218
-4.5446 israel -0.2218
-4.5446 israeli -0.2218
-4.5446 issue -0.2218
-4.5446 issued -0.2218
-4.5446 istanbul -0.2218
-4.5446 italia -0.2218
-4.5446 italiano -0.2218
-4.5446 italic -0.2218
-4.5446 italy -0.2218
-4.5446 items -0.2218
-4.5446 itself -0.2218
-4.5446 itunes -0.2218
-4.5446 ivory -0.2218
-4.5446 jacket -0.2218
-4.5446 jackie -0.2218
-4.5446 jackson -0.2218
-4.5446 jacksonville -0.2218
-4.5446 jaguar -0.2218
-4.5446 jamaica -0.2218
-4.5446 january -0.2218
-4.5446 japanese -0.2218
-4.5446 javascript -0.2218
-4.5446 jeans -0.2218
-4.5446 jefferson -0.2218
-4.5446 jeffrey -0.2218
-4.5446 jelsoft -0.2218
-4.5446 jennifer -0.2218
-4.5446 jenny -0.2218
-4.5446 jeremy -0.2218
-4.5446 jerry -0.2218
-4.5446 jersey -0.2218
-4.5446 jerusalem -0.2218
-4.5446 jesse -0.2218
-4.5446 jessica -0.2218
-4.5446 jesus -0.2218
-4.5446 jewel -0.2218
-4.5446 jewellery -0.2218
-4.5446 jewelry -0.2218
-4.5446 jewish -0.2218
-4.5446 jimmy -0.2218
-4.5446 johnny -0.2218
-4.5446 johnson -0.2218
-4.5446 johnston -0.2218
-4.5446 joined -0.2218
-4.5446 joining -0.2218
-4.5446 jonathan -0.2218
-4.5446 jordan -0.2218
-4.5446 joseph -0.2218
-4.5446 joshua -0.2218
-4.5446 journal -0.2218
-4.5446 journalism -0.2218
-4.5446 journalist -0.2218
-4.5446 journey -0.2218
-4.5446 judge -0.2218
-4.5446 judgment -0.2218
-4.5446 judicial -0.2218
-4.5446 juice -0.2218
-4.5446 julia -0.2218
-4.5446 julie -0.2218
-4.5446 jumping -0.2218
-4.5446 junction -0.2218
-4.5446 jungle -0.2218
-4.5446 junior -0.2218
-4.5446 jurisdiction -0.2218
-4.5446 justice -0.2218
-4.5446 justify -0.2218
-4.5446 justin -0.2218
-4.5446 juvenile -0.2218
-4.5446 kansas -0.2218
-4.5446 karaoke -0.2218
-4.5446 katrina -0.2218
-4.5446 kazakhstan -0.2218
-4.5446 keeping -0.2218
-4.5446 kelkoo -0.2218
-4.5446 kentucky -0.2218
-4.5446 kernel -0.2218
-4.5446 keyboard -0.2218
-4.5446 keyword -0.2218
-4.5446 kidney -0.2218
-4.5446 kijiji -0.2218
-4.5446 killed -0.2218
-4.5446 killer -0.2218
-4.5446 killing -0.2218
-4.5446 kills -0.2218
-4.5446 kilometers -0.2218
-4.5446 kinase -0.2218
-4.5446 kinda -0.2218
-4.5446 kinds -0.2218
-4.5446 kingdom -0.2218
-4.5446 kings -0.2218
-4.5446 kingston -0.2218
-4.5446 kissing -0.2218
-4.5446 kitchen -0.2218
-4.5446 kitty -0.2218
-4.5446 klein -0.2218
-4.5446 knife -0.2218
-4.5446 knight -0.2218
-4.5446 knitting -0.2218
-4.5446 knives -0.2218
-4.5446 knock -0.2218
-4.5446 knowing -0.2218
-4.5446 knowledge -0.2218
-4.5446 knowledgestorm -0.2218
-4.5446 known -0.2218
-4.5446 knows -0.2218
-4.5446 kodak -0.2218
-4.5446 korea -0.2218
-4.5446 korean -0.2218
-4.5446 kruger -0.2218
-4.5446 kuwait -0.2218
-4.5446 laboratory -0.2218
-4.5446 labour -0.2218
-4.5446 lafayette -0.2218
-4.5446 lambda -0.2218
-4.5446 lancaster -0.2218
-4.5446 landing -0.2218
-4.5446 landscape -0.2218
-4.5446 language -0.2218
-4.5446 laptop -0.2218
-4.5446 largely -0.2218
-4.5446 larger -0.2218
-4.5446 largest -0.2218
-4.5446 lasting -0.2218
-4.5446 lately -0.2218
-4.5446 latest -0.2218
-4.5446 latina -0.2218
-4.5446 latino -0.2218
-4.5446 latitude -0.2218
-4.5446 latter -0.2218
-4.5446 latvia -0.2218
-4.5446 lauderdale -0.2218
-4.5446 laughing -0.2218
-4.5446 launch -0.2218
-4.5446 laundry -0.2218
-4.5446 lauren -0.2218
-4.5446 lawrence -0.2218
-4.5446 lawsuit -0.2218
-4.5446 lawyer -0.2218
-4.5446 layout -0.2218
-4.5446 leader -0.2218
-4.5446 leadership -0.2218
-4.5446 leading -0.2218
-4.5446 leads -0.2218
-4.5446 league -0.2218
-4.5446 learn -0.2218
-4.5446 learners -0.2218
-4.5446 learning -0.2218
-4.5446 lease -0.2218
-4.5446 leasing -0.2218
-4.5446 least -0.2218
-4.5446 leather -0.2218
-4.5446 leave -0.2218
-4.5446 leaving -0.2218
-4.5446 lebanon -0.2218
-4.5446 lecture -0.2218
-4.5446 leeds -0.2218
-4.5446 legacy -0.2218
-4.5446 legal -0.2218
-4.5446 legally -0.2218
-4.5446 legend -0.2218
-4.5446 legendary -0.2218
-4.5446 legislation -0.2218
-4.5446 legislative -0.2218
-4.5446 legislature -0.2218
-4.5446 legitimate -0.2218
-4.5446 leisure -0.2218
-4.5446 lemon -0.2218
-4.5446 lender -0.2218
-4.5446 lending -0.2218
-4.5446 length -0.2218
-4.5446 lenses -0.2218
-4.5446 leonard -0.2218
-4.5446 leone -0.2218
-4.5446 lesbian -0.2218
-4.5446 leslie -0.2218
-4.5446 lesser -0.2218
-4.5446 lesson -0.2218
-4.5446 letter -0.2218
-4.5446 letting -0.2218
-4.5446 level -0.2218
-4.5446 levitra -0.2218
-4.5446 lewis -0.2218
-4.5446 lexington -0.2218
-4.5446 lexmark -0.2218
-4.5446 lexus -0.2218
-4.5446 liability -0.2218
-4.5446 liable -0.2218
-4.5446 liberal -0.2218
-4.5446 liberia -0.2218
-4.5446 liberty -0.2218
-4.5446 library -0.2218
-4.5446 licence -0.2218
-4.5446 license -0.2218
-4.5446 licensed -0.2218
-4.5446 licensing -0.2218
-4.5446 licking -0.2218
-4.5446 liechtenstein -0.2218
-4.5446 lifestyle -0.2218
-4.5446 lifetime -0.2218
-4.5446 light -0.2218
-4.5446 lightbox -0.2218
-4.5446 lighter -0.2218
-4.5446 lighting -0.2218
-4.5446 lightning -0.2218
-4.5446 lightweight -0.2218
-4.5446 liked -0.2218
-4.5446 likelihood -0.2218
-4.5446 likely -0.2218
-4.5446 likes -0.2218
-4.5446 likewise -0.2218
-4.5446 limit -0.2218
-4.5446 limitation -0.2218
-4.5446 limiting -0.2218
-4.5446 limousines -0.2218
-4.5446 lincoln -0.2218
-4.5446 linda -0.2218
-4.5446 lindsay -0.2218
-4.5446 linear -0.2218
-4.5446 lined -0.2218
-4.5446 lines -0.2218
-4.5446 lingerie -0.2218
-4.5446 linked -0.2218
-4.5446 linking -0.2218
-4.5446 links -0.2218
-4.5446 linux -0.2218
-4.5446 lions -0.2218
-4.5446 liquid -0.2218
-4.5446 listed -0.2218
-4.5446 listen -0.2218
-4.5446 listening -0.2218
-4.5446 listing -0.2218
-4.5446 listprice -0.2218
-4.5446 lists -0.2218
-4.5446 literacy -0.2218
-4.5446 literally -0.2218
-4.5446 literary -0.2218
-4.5446 literature -0.2218
-4.5446 lithuania -0.2218
-4.5446 litigation -0.2218
-4.5446 little -0.2218
-4.5446 livecam -0.2218
-4.5446 lived -0.2218
-4.5446 liver -0.2218
-4.5446 liverpool -0.2218
-4.5446 lives -0.2218
-4.5446 livesex -0.2218
-4.5446 livestock -0.2218
-4.5446 living -0.2218
-4.5446 lloyd -0.2218
-4.5446 loaded -0.2218
-4.5446 loading -0.2218
-4.5446 loads -0.2218
-4.5446 loans -0.2218
-4.5446 lobby -0.2218
-4.5446 local -0.2218
-4.5446 locale -0.2218
-4.5446 locally -0.2218
-4.5446 locate -0.2218
-4.5446 located -0.2218
-4.5446 location -0.2218
-4.5446 locator -0.2218
-4.5446 locked -0.2218
-4.5446 locking -0.2218
-4.5446 locks -0.2218
-4.5446 lodge -0.2218
-4.5446 lodging -0.2218
-4.5446 logan -0.2218
-4.5446 logged -0.2218
-4.5446 logging -0.2218
-4.5446 logic -0.2218
-4.5446 logical -0.2218
-4.5446 login -0.2218
-4.5446 logistics -0.2218
-4.5446 logitech -0.2218
-4.5446 logos -0.2218
-4.5446 lolita -0.2218
-4.5446 london -0.2218
-4.5446 lonely -0.2218
-4.5446 longer -0.2218
-4.5446 longest -0.2218
-4.5446 longitude -0.2218
-4.5446 looked -0.2218
-4.5446 looking -0.2218
-4.5446 looks -0.2218
-4.5446 looksmart -0.2218
-4.5446 lookup -0.2218
-4.5446 loops -0.2218
-4.5446 loose -0.2218
-4.5446 lopez -0.2218
-4.5446 losing -0.2218
-4.5446 losses -0.2218
-4.5446 lottery -0.2218
-4.5446 lotus -0.2218
-4.5446 louis -0.2218
-4.5446 louise -0.2218
-4.5446 louisiana -0.2218
-4.5446 louisville -0.2218
-4.5446 lounge -0.2218
-4.5446 loved -0.2218
-4.5446 lovely -0.2218
-4.5446 lover -0.2218
-4.5446 loves -0.2218
-4.5446 loving -0.2218
-4.5446 lower -0.2218
-4.5446 lowest -0.2218
-4.5446 lucas -0.2218
-4.5446 lucia -0.2218
-4.5446 lucky -0.2218
-4.5446 luggage -0.2218
-4.5446 lunch -0.2218
-4.5446 luther -0.2218
-4.5446 luxembourg -0.2218
-4.5446 luxury -0.2218
-4.5446 lycos -0.2218
-4.5446 lying -0.2218
-4.5446 lyric -0.2218
-4.5446 macedonia -0.2218
-4.5446 machine -0.2218
-4.5446 machinery -0.2218
-4.5446 macintosh -0.2218
-4.5446 macromedia -0.2218
-4.5446 madagascar -0.2218
-4.5446 madison -0.2218
-4.5446 madness -0.2218
-4.5446 madonna -0.2218
-4.5446 madrid -0.2218
-4.5446 magazine -0.2218
-4.5446 magical -0.2218
-4.5446 magnet -0.2218
-4.5446 magnetic -0.2218
-4.5446 magnificent -0.2218
-4.5446 magnitude -0.2218
-4.5446 maiden -0.2218
-4.5446 mailed -0.2218
-4.5446 mailing -0.2218
-4.5446 mailman -0.2218
-4.5446 mailto -0.2218
-4.5446 mainly -0.2218
-4.5446 mainstream -0.2218
-4.5446 maintain -0.2218
-4.5446 maintaining -0.2218
-4.5446 maintenance -0.2218
-4.5446 majority -0.2218
-4.5446 makeup -0.2218
-4.5446 making -0.2218
-4.5446 malawi -0.2218
-4.5446 malaysia -0.2218
-4.5446 maldives -0.2218
-4.5446 malpractice -0.2218
-4.5446 managed -0.2218
-4.5446 management -0.2218
-4.5446 manager -0.2218
-4.5446 managing -0.2218
-4.5446 manchester -0.2218
-4.5446 mandate -0.2218
-4.5446 mandatory -0.2218
-4.5446 manhattan -0.2218
-4.5446 manitoba -0.2218
-4.5446 manually -0.2218
-4.5446 manufacture -0.2218
-4.5446 manufactured -0.2218
-4.5446 manufacturer -0.2218
-4.5446 manufacturing -0.2218
-4.5446 mapping -0.2218
-4.5446 marathon -0.2218
-4.5446 margaret -0.2218
-4.5446 marijuana -0.2218
-4.5446 marilyn -0.2218
-4.5446 maritime -0.2218
-4.5446 marketing -0.2218
-4.5446 marketplace -0.2218
-4.5446 marking -0.2218
-4.5446 marriage -0.2218
-4.5446 married -0.2218
-4.5446 marriott -0.2218
-4.5446 marshall -0.2218
-4.5446 martial -0.2218
-4.5446 maryland -0.2218
-4.5446 massachusetts -0.2218
-4.5446 massage -0.2218
-4.5446 massive -0.2218
-4.5446 master -0.2218
-4.5446 mastercard -0.2218
-4.5446 masturbating -0.2218
-4.5446 masturbation -0.2218
-4.5446 matching -0.2218
-4.5446 material -0.2218
-4.5446 maternity -0.2218
-4.5446 mathematical -0.2218
-4.5446 mathematics -0.2218
-4.5446 mating -0.2218
-4.5446 matrix -0.2218
-4.5446 matter -0.2218
-4.5446 matthew -0.2218
-4.5446 mattress -0.2218
-4.5446 mature -0.2218
-4.5446 mauritius -0.2218
-4.5446 maximize -0.2218
-4.5446 maximum -0.2218
-4.5446 mcdonald -0.2218
-4.5446 meals -0.2218
-4.5446 meaning -0.2218
-4.5446 meaningful -0.2218
-4.5446 means -0.2218
-4.5446 meant -0.2218
-4.5446 meanwhile -0.2218
-4.5446 measure -0.2218
-4.5446 measured -0.2218
-4.5446 measurement -0.2218
-4.5446 measuring -0.2218
-4.5446 mechanical -0.2218
-4.5446 mechanics -0.2218
-4.5446 mechanism -0.2218
-4.5446 medal -0.2218
-4.5446 media -0.2218
-4.5446 median -0.2218
-4.5446 mediawiki -0.2218
-4.5446 medicaid -0.2218
-4.5446 medical -0.2218
-4.5446 medicare -0.2218
-4.5446 medication -0.2218
-4.5446 medicine -0.2218
-4.5446 medieval -0.2218
-4.5446 meditation -0.2218
-4.5446 mediterranean -0.2218
-4.5446 medium -0.2218
-4.5446 medline -0.2218
-4.5446 meeting -0.2218
-4.5446 meets -0.2218
-4.5446 meetup -0.2218
-4.5446 melbourne -0.2218
-4.5446 melissa -0.2218
-4.5446 member -0.2218
-4.5446 membership -0.2218
-4.5446 membrane -0.2218
-4.5446 memorabilia -0.2218
-4.5446 memory -0.2218
-4.5446 memphis -0.2218
-4.5446 mental -0.2218
-4.5446 mention -0.2218
-4.5446 mentor -0.2218
-4.5446 menus -0.2218
-4.5446 mercedes -0.2218
-4.5446 merchandise -0.2218
-4.5446 merchant -0.2218
-4.5446 mercy -0.2218
-4.5446 merely -0.2218
-4.5446 merge -0.2218
-4.5446 merger -0.2218
-4.5446 merit -0.2218
-4.5446 merry -0.2218
-4.5446 message -0.2218
-4.5446 messaging -0.2218
-4.5446 messenger -0.2218
-4.5446 metabolism -0.2218
-4.5446 metadata -0.2218
-4.5446 metal -0.2218
-4.5446 metallic -0.2218
-4.5446 metallica -0.2218
-4.5446 meter -0.2218
-4.5446 method -0.2218
-4.5446 methodology -0.2218
-4.5446 metres -0.2218
-4.5446 metric -0.2218
-4.5446 metro -0.2218
-4.5446 metropolitan -0.2218
-4.5446 mexican -0.2218
-4.5446 mexico -0.2218
-4.5446 meyer -0.2218
-4.5446 miami -0.2218
-4.5446 michael -0.2218
-4.5446 michel -0.2218
-4.5446 michelle -0.2218
-4.5446 michigan -0.2218
-4.5446 micro -0.2218
-4.5446 microphone -0.2218
-4.5446 microsoft -0.2218
-4.5446 microwave -0.2218
-4.5446 middle -0.2218
-4.5446 midlands -0.2218
-4.5446 midnight -0.2218
-4.5446 midwest -0.2218
-4.5446 might -0.2218
-4.5446 mighty -0.2218
-4.5446 migration -0.2218
-4.5446 milan -0.2218
-4.5446 mileage -0.2218
-4.5446 miles -0.2218
-4.5446 milfhunter -0.2218
-4.5446 milfs -0.2218
-4.5446 military -0.2218
-4.5446 millennium -0.2218
-4.5446 miller -0.2218
-4.5446 million -0.2218
-4.5446 mills -0.2218
-4.5446 milton -0.2218
-4.5446 milwaukee -0.2218
-4.5446 minds -0.2218
-4.5446 mineral -0.2218
-4.5446 mines -0.2218
-4.5446 miniature -0.2218
-4.5446 minimal -0.2218
-4.5446 minimize -0.2218
-4.5446 minimum -0.2218
-4.5446 mining -0.2218
-4.5446 minister -0.2218
-4.5446 ministry -0.2218
-4.5446 minneapolis -0.2218
-4.5446 minnesota -0.2218
-4.5446 minolta -0.2218
-4.5446 minor -0.2218
-4.5446 minority -0.2218
-4.5446 minus -0.2218
-4.5446 minute -0.2218
-4.5446 miracle -0.2218
-4.5446 mirror -0.2218
-4.5446 miscellaneous -0.2218
-4.5446 missed -0.2218
-4.5446 missile -0.2218
-4.5446 missing -0.2218
-4.5446 mission -0.2218
-4.5446 mississippi -0.2218
-4.5446 missouri -0.2218
-4.5446 mistake -0.2218
-4.5446 mistress -0.2218
-4.5446 mitchell -0.2218
-4.5446 mitsubishi -0.2218
-4.5446 mixed -0.2218
-4.5446 mixer -0.2218
-4.5446 mixing -0.2218
-4.5446 mixture -0.2218
-4.5446 mobile -0.2218
-4.5446 mobility -0.2218
-4.5446 model -0.2218
-4.5446 modeling -0.2218
-4.5446 modelling -0.2218
-4.5446 modem -0.2218
-4.5446 moderate -0.2218
-4.5446 moderator -0.2218
-4.5446 modern -0.2218
-4.5446 modes -0.2218
-4.5446 modification -0.2218
-4.5446 modify -0.2218
-4.5446 modular -0.2218
-4.5446 module -0.2218
-4.5446 moisture -0.2218
-4.5446 moldova -0.2218
-4.5446 molecular -0.2218
-4.5446 molecules -0.2218
-4.5446 moment -0.2218
-4.5446 momentum -0.2218
-4.5446 monaco -0.2218
-4.5446 monday -0.2218
-4.5446 monetary -0.2218
-4.5446 money -0.2218
-4.5446 mongolia -0.2218
-4.5446 monica -0.2218
-4.5446 monitor -0.2218
-4.5446 monitoring -0.2218
-4.5446 monkey -0.2218
-4.5446 monroe -0.2218
-4.5446 monster -0.2218
-4.5446 montana -0.2218
-4.5446 monte -0.2218
-4.5446 montgomery -0.2218
-4.5446 month -0.2218
-4.5446 monthly -0.2218
-4.5446 montreal -0.2218
-4.5446 moore -0.2218
-4.5446 moral -0.2218
-4.5446 moreover -0.2218
-4.5446 morgan -0.2218
-4.5446 morning -0.2218
-4.5446 morocco -0.2218
-4.5446 morris -0.2218
-4.5446 morrison -0.2218
-4.5446 mortality -0.2218
-4.5446 mortgage -0.2218
-4.5446 moscow -0.2218
-4.5446 moses -0.2218
-4.5446 mostly -0.2218
-4.5446 motel -0.2218
-4.5446 mother -0.2218
-4.5446 motherboard -0.2218
-4.5446 motion -0.2218
-4.5446 motivated -0.2218
-4.5446 motivation -0.2218
-4.5446 motor -0.2218
-4.5446 motorcycle -0.2218
-4.5446 motorola -0.2218
-4.5446 mount -0.2218
-4.5446 mountain -0.2218
-4.5446 mounting -0.2218
-4.5446 mouse -0.2218
-4.5446 mouth -0.2218
-4.5446 moved -0.2218
-4.5446 movement -0.2218
-4.5446 movers -0.2218
-4.5446 moves -0.2218
-4.5446 movie -0.2218
-4.5446 moving -0.2218
-4.5446 mozambique -0.2218
-4.5446 mozilla -0.2218
-4.5446 mpegs -0.2218
-4.5446 msgid -0.2218
-4.5446 msgstr -0.2218
-4.5446 multi -0.2218
-4.5446 multimedia -0.2218
-4.5446 multiple -0.2218
-4.5446 mumbai -0.2218
-4.5446 munich -0.2218
-4.5446 municipal -0.2218
-4.5446 municipality -0.2218
-4.5446 murder -0.2218
-4.5446 murphy -0.2218
-4.5446 murray -0.2218
-4.5446 muscle -0.2218
-4.5446 museum -0.2218
-4.5446 music -0.2218
-4.5446 musical -0.2218
-4.5446 musician -0.2218
-4.5446 muslim -0.2218
-4.5446 mustang -0.2218
-4.5446 mutual -0.2218
-4.5446 myanmar -0.2218
-4.5446 myers -0.2218
-4.5446 myrtle -0.2218
-4.5446 myself -0.2218
-4.5446 mysimon -0.2218
-4.5446 myspace -0.2218
-4.5446 mysql -0.2218
-4.5446 mysterious -0.2218
-4.5446 mystery -0.2218
-4.5446 nails -0.2218
-4.5446 naked -0.2218
-4.5446 named -0.2218
-4.5446 namely -0.2218
-4.5446 names -0.2218
-4.5446 namespace -0.2218
-4.5446 namibia -0.2218
-4.5446 nancy -0.2218
-4.5446 naples -0.2218
-4.5446 narrative -0.2218
-4.5446 narrow -0.2218
-4.5446 nascar -0.2218
-4.5446 nasdaq -0.2218
-4.5446 nashville -0.2218
-4.5446 nasty -0.2218
-4.5446 nathan -0.2218
-4.5446 nation -0.2218
-4.5446 national -0.2218
-4.5446 nationally -0.2218
-4.5446 nationwide -0.2218
-4.5446 native -0.2218
-4.5446 natural -0.2218
-4.5446 naturally -0.2218
-4.5446 nature -0.2218
-4.5446 naughty -0.2218
-4.5446 naval -0.2218
-4.5446 navigate -0.2218
-4.5446 navigation -0.2218
-4.5446 navigator -0.2218
-4.5446 nearby -0.2218
-4.5446 nearest -0.2218
-4.5446 nearly -0.2218
-4.5446 nebraska -0.2218
-4.5446 necessary -0.2218
-4.5446 necessity -0.2218
-4.5446 necklace -0.2218
-4.5446 needed -0.2218
-4.5446 needle -0.2218
-4.5446 needs -0.2218
-4.5446 negative -0.2218
-4.5446 negotiation -0.2218
-4.5446 neighbor -0.2218
-4.5446 neighborhood -0.2218
-4.5446 neither -0.2218
-4.5446 nelson -0.2218
-4.5446 nepal -0.2218
-4.5446 nerve -0.2218
-4.5446 nervous -0.2218
-4.5446 nested -0.2218
-4.5446 netherlands -0.2218
-4.5446 netscape -0.2218
-4.5446 network -0.2218
-4.5446 networking -0.2218
-4.5446 neural -0.2218
-4.5446 neutral -0.2218
-4.5446 nevada -0.2218
-4.5446 never -0.2218
-4.5446 nevertheless -0.2218
-4.5446 newark -0.2218
-4.5446 newbie -0.2218
-4.5446 newcastle -0.2218
-4.5446 newer -0.2218
-4.5446 newest -0.2218
-4.5446 newfoundland -0.2218
-4.5446 newly -0.2218
-4.5446 newman -0.2218
-4.5446 newport -0.2218
-4.5446 newsletter -0.2218
-4.5446 newspaper -0.2218
-4.5446 newton -0.2218
-4.5446 nextel -0.2218
-4.5446 niagara -0.2218
-4.5446 nicaragua -0.2218
-4.5446 nicholas -0.2218
-4.5446 nickel -0.2218
-4.5446 nickname -0.2218
-4.5446 nicole -0.2218
-4.5446 niger -0.2218
-4.5446 nigeria -0.2218
-4.5446 night -0.2218
-4.5446 nightlife -0.2218
-4.5446 nightmare -0.2218
-4.5446 nikon -0.2218
-4.5446 nintendo -0.2218
-4.5446 nipple -0.2218
-4.5446 nirvana -0.2218
-4.5446 nissan -0.2218
-4.5446 nitrogen -0.2218
-4.5446 noble -0.2218
-4.5446 nobody -0.2218
-4.5446 nodes -0.2218
-4.5446 noise -0.2218
-4.5446 nokia -0.2218
-4.5446 nominated -0.2218
-4.5446 nomination -0.2218
-4.5446 nonprofit -0.2218
-4.5446 norfolk -0.2218
-4.5446 normal -0.2218
-4.5446 normally -0.2218
-4.5446 norman -0.2218
-4.5446 north -0.2218
-4.5446 northeast -0.2218
-4.5446 northern -0.2218
-4.5446 northwest -0.2218
-4.5446 norton -0.2218
-4.5446 norway -0.2218
-4.5446 norwegian -0.2218
-4.5446 notebook -0.2218
-4.5446 noted -0.2218
-4.5446 notes -0.2218
-4.5446 nothing -0.2218
-4.5446 notice -0.2218
-4.5446 noticed -0.2218
-4.5446 notification -0.2218
-4.5446 notify -0.2218
-4.5446 notion -0.2218
-4.5446 notre -0.2218
-4.5446 nottingham -0.2218
-4.5446 novel -0.2218
-4.5446 novelty -0.2218
-4.5446 november -0.2218
-4.5446 nowhere -0.2218
-4.5446 nuclear -0.2218
-4.5446 nudist -0.2218
-4.5446 nudity -0.2218
-4.5446 number -0.2218
-4.5446 numeric -0.2218
-4.5446 numerical -0.2218
-4.5446 numerous -0.2218
-4.5446 nurse -0.2218
-4.5446 nursery -0.2218
-4.5446 nursing -0.2218
-4.5446 nutrition -0.2218
-4.5446 nutritional -0.2218
-4.5446 nutten -0.2218
-4.5446 nvidia -0.2218
-4.5446 nylon -0.2218
-4.5446 oakland -0.2218
-4.5446 oasis -0.2218
-4.5446 obesity -0.2218
-4.5446 obituaries -0.2218
-4.5446 object -0.2218
-4.5446 objective -0.2218
-4.5446 obligation -0.2218
-4.5446 observation -0.2218
-4.5446 observe -0.2218
-4.5446 observed -0.2218
-4.5446 observer -0.2218
-4.5446 obtain -0.2218
-4.5446 obtaining -0.2218
-4.5446 obvious -0.2218
-4.5446 obviously -0.2218
-4.5446 occasion -0.2218
-4.5446 occasional -0.2218
-4.5446 occasionally -0.2218
-4.5446 occupation -0.2218
-4.5446 occupational -0.2218
-4.5446 occupied -0.2218
-4.5446 occur -0.2218
-4.5446 occurred -0.2218
-4.5446 occurrence -0.2218
-4.5446 occurring -0.2218
-4.5446 ocean -0.2218
-4.5446 october -0.2218
-4.5446 offense -0.2218
-4.5446 offensive -0.2218
-4.5446 offer -0.2218
-4.5446 offering -0.2218
-4.5446 office -0.2218
-4.5446 officer -0.2218
-4.5446 official -0.2218
-4.5446 officially -0.2218
-4.5446 offline -0.2218
-4.5446 offset -0.2218
-4.5446 offshore -0.2218
-4.5446 often -0.2218
-4.5446 oklahoma -0.2218
-4.5446 older -0.2218
-4.5446 oldest -0.2218
-4.5446 olive -0.2218
-4.5446 oliver -0.2218
-4.5446 olympic -0.2218
-4.5446 olympus -0.2218
-4.5446 omaha -0.2218
-4.5446 omega -0.2218
-4.5446 omissions -0.2218
-4.5446 ongoing -0.2218
-4.5446 onion -0.2218
-4.5446 ontario -0.2218
-4.5446 opened -0.2218
-4.5446 opening -0.2218
-4.5446 opens -0.2218
-4.5446 opera -0.2218
-4.5446 operate -0.2218
-4.5446 operated -0.2218
-4.5446 operating -0.2218
-4.5446 operation -0.2218
-4.5446 operational -0.2218
-4.5446 operator -0.2218
-4.5446 opinion -0.2218
-4.5446 opponent -0.2218
-4.5446 opportunity -0.2218
-4.5446 opposed -0.2218
-4.5446 opposite -0.2218
-4.5446 opposition -0.2218
-4.5446 optical -0.2218
-4.5446 optics -0.2218
-4.5446 optimal -0.2218
-4.5446 optimization -0.2218
-4.5446 optimize -0.2218
-4.5446 optimum -0.2218
-4.5446 option -0.2218
-4.5446 optional -0.2218
-4.5446 oracle -0.2218
-4.5446 orange -0.2218
-4.5446 orbit -0.2218
-4.5446 orchestra -0.2218
-4.5446 order -0.2218
-4.5446 ordering -0.2218
-4.5446 ordinance -0.2218
-4.5446 ordinary -0.2218
-4.5446 oregon -0.2218
-4.5446 organ -0.2218
-4.5446 organic -0.2218
-4.5446 organisation -0.2218
-4.5446 organised -0.2218
-4.5446 organisms -0.2218
-4.5446 organization -0.2218
-4.5446 organizational -0.2218
-4.5446 organize -0.2218
-4.5446 organized -0.2218
-4.5446 organizer -0.2218
-4.5446 organizing -0.2218
-4.5446 oriental -0.2218
-4.5446 orientation -0.2218
-4.5446 oriented -0.2218
-4.5446 origin -0.2218
-4.5446 original -0.2218
-4.5446 originally -0.2218
-4.5446 orlando -0.2218
-4.5446 orleans -0.2218
-4.5446 oscar -0.2218
-4.5446 other -0.2218
-4.5446 otherwise -0.2218
-4.5446 ottawa -0.2218
-4.5446 ought -0.2218
-4.5446 ourselves -0.2218
-4.5446 outcome -0.2218
-4.5446 outdoor -0.2218
-4.5446 outer -0.2218
-4.5446 outlet -0.2218
-4.5446 outline -0.2218
-4.5446 outlined -0.2218
-4.5446 outlook -0.2218
-4.5446 output -0.2218
-4.5446 outreach -0.2218
-4.5446 outside -0.2218
-4.5446 outsourcing -0.2218
-4.5446 outstanding -0.2218
-4.5446 overall -0.2218
-4.5446 overcome -0.2218
-4.5446 overhead -0.2218
-4.5446 overnight -0.2218
-4.5446 overseas -0.2218
-4.5446 overview -0.2218
-4.5446 owned -0.2218
-4.5446 owner -0.2218
-4.5446 ownership -0.2218
-4.5446 oxford -0.2218
-4.5446 oxide -0.2218
-4.5446 oxygen -0.2218
-4.5446 ozone -0.2218
-4.5446 pacific -0.2218
-4.5446 package -0.2218
-4.5446 packaging -0.2218
-4.5446 packard -0.2218
-4.5446 packed -0.2218
-4.5446 packet -0.2218
-4.5446 packing -0.2218
-4.5446 painful -0.2218
-4.5446 paintball -0.2218
-4.5446 painting -0.2218
-4.5446 pakistan -0.2218
-4.5446 palace -0.2218
-4.5446 palestine -0.2218
-4.5446 palestinian -0.2218
-4.5446 palmer -0.2218
-4.5446 pamela -0.2218
-4.5446 panama -0.2218
-4.5446 panasonic -0.2218
-4.5446 panties -0.2218
-4.5446 pantyhose -0.2218
-4.5446 paperback -0.2218
-4.5446 parade -0.2218
-4.5446 paradise -0.2218
-4.5446 paragraph -0.2218
-4.5446 paraguay -0.2218
-4.5446 parallel -0.2218
-4.5446 parameter -0.2218
-4.5446 parcel -0.2218
-4.5446 parent -0.2218
-4.5446 parental -0.2218
-4.5446 parenting -0.2218
-4.5446 parish -0.2218
-4.5446 parker -0.2218
-4.5446 parking -0.2218
-4.5446 parliament -0.2218
-4.5446 parliamentary -0.2218
-4.5446 partially -0.2218
-4.5446 participant -0.2218
-4.5446 participate -0.2218
-4.5446 participated -0.2218
-4.5446 participating -0.2218
-4.5446 participation -0.2218
-4.5446 particle -0.2218
-4.5446 particular -0.2218
-4.5446 particularly -0.2218
-4.5446 partition -0.2218
-4.5446 partly -0.2218
-4.5446 partnership -0.2218
-4.5446 passage -0.2218
-4.5446 passed -0.2218
-4.5446 passenger -0.2218
-4.5446 passes -0.2218
-4.5446 passing -0.2218
-4.5446 passion -0.2218
-4.5446 passive -0.2218
-4.5446 passport -0.2218
-4.5446 password -0.2218
-4.5446 pastor -0.2218
-4.5446 patent -0.2218
-4.5446 pathology -0.2218
-4.5446 patient -0.2218
-4.5446 patricia -0.2218
-4.5446 patrick -0.2218
-4.5446 patrol -0.2218
-4.5446 pattern -0.2218
-4.5446 pavilion -0.2218
-4.5446 payable -0.2218
-4.5446 payday -0.2218
-4.5446 paying -0.2218
-4.5446 payment -0.2218
-4.5446 paypal -0.2218
-4.5446 payroll -0.2218
-4.5446 peace -0.2218
-4.5446 peaceful -0.2218
-4.5446 pearl -0.2218
-4.5446 pediatric -0.2218
-4.5446 peeing -0.2218
-4.5446 peers -0.2218
-4.5446 penalty -0.2218
-4.5446 pencil -0.2218
-4.5446 pendant -0.2218
-4.5446 pending -0.2218
-4.5446 penetration -0.2218
-4.5446 penguin -0.2218
-4.5446 peninsula -0.2218
-4.5446 penis -0.2218
-4.5446 pennsylvania -0.2218
-4.5446 penny -0.2218
-4.5446 pension -0.2218
-4.5446 pentium -0.2218
-4.5446 people -0.2218
-4.5446 pepper -0.2218
-4.5446 perceived -0.2218
-4.5446 percent -0.2218
-4.5446 percentage -0.2218
-4.5446 perception -0.2218
-4.5446 perfect -0.2218
-4.5446 perfectly -0.2218
-4.5446 perform -0.2218
-4.5446 performance -0.2218
-4.5446 performer -0.2218
-4.5446 performing -0.2218
-4.5446 perfume -0.2218
-4.5446 perhaps -0.2218
-4.5446 period -0.2218
-4.5446 periodic -0.2218
-4.5446 periodically -0.2218
-4.5446 peripheral -0.2218
-4.5446 permalink -0.2218
-4.5446 permanent -0.2218
-4.5446 permission -0.2218
-4.5446 permit -0.2218
-4.5446 permitted -0.2218
-4.5446 perry -0.2218
-4.5446 persian -0.2218
-4.5446 persistent -0.2218
-4.5446 person -0.2218
-4.5446 personal -0.2218
-4.5446 personality -0.2218
-4.5446 personalized -0.2218
-4.5446 personally -0.2218
-4.5446 personnel -0.2218
-4.5446 perspective -0.2218
-4.5446 perth -0.2218
-4.5446 peter -0.2218
-4.5446 petersburg -0.2218
-4.5446 peterson -0.2218
-4.5446 petite -0.2218
-4.5446 petition -0.2218
-4.5446 petroleum -0.2218
-4.5446 phantom -0.2218
-4.5446 pharmaceutical -0.2218
-4.5446 pharmacology -0.2218
-4.5446 pharmacy -0.2218
-4.5446 phase -0.2218
-4.5446 phenomenon -0.2218
-4.5446 phentermine -0.2218
-4.5446 philadelphia -0.2218
-4.5446 philip -0.2218
-4.5446 philippines -0.2218
-4.5446 phillips -0.2218
-4.5446 philosophy -0.2218
-4.5446 phoenix -0.2218
-4.5446 phone -0.2218
-4.5446 photo -0.2218
-4.5446 photograph -0.2218
-4.5446 photographer -0.2218
-4.5446 photographic -0.2218
-4.5446 photography -0.2218
-4.5446 photoshop -0.2218
-4.5446 phpbb -0.2218
-4.5446 phrase -0.2218
-4.5446 physical -0.2218
-4.5446 physically -0.2218
-4.5446 physician -0.2218
-4.5446 physics -0.2218
-4.5446 physiology -0.2218
-4.5446 piano -0.2218
-4.5446 pichunter -0.2218
-4.5446 picked -0.2218
-4.5446 picking -0.2218
-4.5446 picks -0.2218
-4.5446 pickup -0.2218
-4.5446 picnic -0.2218
-4.5446 picture -0.2218
-4.5446 piece -0.2218
-4.5446 pierce -0.2218
-4.5446 pierre -0.2218
-4.5446 pillow -0.2218
-4.5446 pills -0.2218
-4.5446 pilot -0.2218
-4.5446 pioneer -0.2218
-4.5446 pipeline -0.2218
-4.5446 pipes -0.2218
-4.5446 pirates -0.2218
-4.5446 pissing -0.2218
-4.5446 pitch -0.2218
-4.5446 pittsburgh -0.2218
-4.5446 pixel -0.2218
-4.5446 pizza -0.2218
-4.5446 place -0.2218
-4.5446 placement -0.2218
-4.5446 placing -0.2218
-4.5446 plain -0.2218
-4.5446 plaintiff -0.2218
-4.5446 plane -0.2218
-4.5446 planned -0.2218
-4.5446 planner -0.2218
-4.5446 planning -0.2218
-4.5446 plans -0.2218
-4.5446 plant -0.2218
-4.5446 plastic -0.2218
-4.5446 plate -0.2218
-4.5446 platform -0.2218
-4.5446 platinum -0.2218
-4.5446 playback -0.2218
-4.5446 playboy -0.2218
-4.5446 playing -0.2218
-4.5446 playlist -0.2218
-4.5446 plays -0.2218
-4.5446 playstation -0.2218
-4.5446 plaza -0.2218
-4.5446 pleasant -0.2218
-4.5446 please -0.2218
-4.5446 pleased -0.2218
-4.5446 pleasure -0.2218
-4.5446 pledge -0.2218
-4.5446 plenty -0.2218
-4.5446 plots -0.2218
-4.5446 plugin -0.2218
-4.5446 plumbing -0.2218
-4.5446 plymouth -0.2218
-4.5446 pocket -0.2218
-4.5446 podcast -0.2218
-4.5446 poems -0.2218
-4.5446 poetry -0.2218
-4.5446 point -0.2218
-4.5446 pointer -0.2218
-4.5446 pointing -0.2218
-4.5446 poison -0.2218
-4.5446 pokemon -0.2218
-4.5446 poker -0.2218
-4.5446 polar -0.2218
-4.5446 political -0.2218
-4.5446 politicians -0.2218
-4.5446 politics -0.2218
-4.5446 polls -0.2218
-4.5446 pollution -0.2218
-4.5446 polyester -0.2218
-4.5446 polymer -0.2218
-4.5446 polyphonic -0.2218
-4.5446 pontiac -0.2218
-4.5446 pools -0.2218
-4.5446 popular -0.2218
-4.5446 popularity -0.2218
-4.5446 population -0.2218
-4.5446 porcelain -0.2218
-4.5446 porno -0.2218
-4.5446 porsche -0.2218
-4.5446 portable -0.2218
-4.5446 portal -0.2218
-4.5446 porter -0.2218
-4.5446 portfolio -0.2218
-4.5446 portion -0.2218
-4.5446 portland -0.2218
-4.5446 portrait -0.2218
-4.5446 ports -0.2218
-4.5446 portsmouth -0.2218
-4.5446 portugal -0.2218
-4.5446 portuguese -0.2218
-4.5446 posing -0.2218
-4.5446 position -0.2218
-4.5446 positioning -0.2218
-4.5446 positive -0.2218
-4.5446 possess -0.2218
-4.5446 possession -0.2218
-4.5446 possibility -0.2218
-4.5446 possible -0.2218
-4.5446 possibly -0.2218
-4.5446 postage -0.2218
-4.5446 postal -0.2218
-4.5446 postcard -0.2218
-4.5446 posted -0.2218
-4.5446 poster -0.2218
-4.5446 posting -0.2218
-4.5446 postposted -0.2218
-4.5446 posts -0.2218
-4.5446 potato -0.2218
-4.5446 potential -0.2218
-4.5446 potentially -0.2218
-4.5446 potter -0.2218
-4.5446 pottery -0.2218
-4.5446 poultry -0.2218
-4.5446 pound -0.2218
-4.5446 poverty -0.2218
-4.5446 powder -0.2218
-4.5446 powell -0.2218
-4.5446 power -0.2218
-4.5446 powerful -0.2218
-4.5446 powerpoint -0.2218
-4.5446 powerseller -0.2218
-4.5446 practical -0.2218
-4.5446 practice -0.2218
-4.5446 practitioner -0.2218
-4.5446 prairie -0.2218
